{"learner":{"attributes":{"best_iteration":"499","best_score":"0.9062484475965513"},"feature_names":["Po","P","Pa","U","Ff","ff3","Tn","Tx","VV","Td","RRR","tR","year","month","day","hour","dayofyear","weekofyear","hour_sin","hour_cos","month_sin","month_cos","dayofyear_sin","dayofyear_cos","T_lag1","T_lag2","T_lag3","T_lag4","T_lag8","T_lag12","T_lag24","T_rolling_mean_8","T_rolling_std_8"],"feature_types":["float","float","float","float","float","float","float","float","float","float","float","float","int","int","int","int","int","int","float","float","float","float","float","float","float","float","float","float","float","float","float","float","float"],"gradient_booster":{"model":{"cats":{"enc":[],"feature_segments":[],"sorted_idx":[]},"gbtree_model_param":{"num_parallel_tree":"1","num_trees":"500"},"iteration_indptr":[0,1,2,3,4,5,6,7,8,9,10,11,12,13,14,15,16,17,18,19,20,21,22,23,24,25,26,27,28,29,30,31,32,33,34,35,36,37,38,39,40,41,42,43,44,45,46,47,48,49,50,51,52,53,54,55,56,57,58,59,60,61,62,63,64,65,66,67,68,69,70,71,72,73,74,75,76,77,78,79,80,81,82,83,84,85,86,87,88,89,90,91,92,93,94,95,96,97,98,99,100,101,102,103,104,105,106,107,108,109,110,111,112,113,114,115,116,117,118,119,120,121,122,123,124,125,126,127,128,129,130,131,132,133,134,135,136,137,138,139,140,141,142,143,144,145,146,147,148,149,150,151,152,153,154,155,156,157,158,159,160,161,162,163,164,165,166,167,168,169,170,171,172,173,174,175,176,177,178,179,180,181,182,183,184,185,186,187,188,189,190,191,192,193,194,195,196,197,198,199,200,201,202,203,204,205,206,207,208,209,210,211,212,213,214,215,216,217,218,219,220,221,222,223,224,225,226,227,228,229,230,231,232,233,234,235,236,237,238,239,240,241,242,243,244,245,246,247,248,249,250,251,252,253,254,255,256,257,258,259,260,261,262,263,264,265,266,267,268,269,270,271,272,273,274,275,276,277,278,279,280,281,282,283,284,285,286,287,288,289,290,291,292,293,294,295,296,297,298,299,300,301,302,303,304,305,306,307,308,309,310,311,312,313,314,315,316,317,318,319,320,321,322,323,324,325,326,327,328,329,330,331,332,333,334,335,336,337,338,339,340,341,342,343,344,345,346,347,348,349,350,351,352,353,354,355,356,357,358,359,360,361,362,363,364,365,366,367,368,369,370,371,372,373,374,375,376,377,378,379,380,381,382,383,384,385,386,387,388,389,390,391,392,393,394,395,396,397,398,399,400,401,402,403,404,405,406,407,408,409,410,411,412,413,414,415,416,417,418,419,420,421,422,423,424,425,426,427,428,429,430,431,432,433,434,435,436,437,438,439,440,441,442,443,444,445,446,447,448,449,450,451,452,453,454,455,456,457,458,459,460,461,462,463,464,465,466,467,468,469,470,471,472,473,474,475,476,477,478,479,480,481,482,483,484,485,486,487,488,489,490,491,492,493,494,495,496,497,498,499,500],"tree_info":[0,0,0,0,0,0,0,0,0,0,0,0,0,0,0,0,0,0,0,0,0,0,0,0,0,0,0,0,0,0,0,0,0,0,0,0,0,0,0,0,0,0,0,0,0,0,0,0,0,0,0,0,0,0,0,0,0,0,0,0,0,0,0,0,0,0,0,0,0,0,0,0,0,0,0,0,0,0,0,0,0,0,0,0,0,0,0,0,0,0,0,0,0,0,0,0,0,0,0,0,0,0,0,0,0,0,0,0,0,0,0,0,0,0,0,0,0,0,0,0,0,0,0,0,0,0,0,0,0,0,0,0,0,0,0,0,0,0,0,0,0,0,0,0,0,0,0,0,0,0,0,0,0,0,0,0,0,0,0,0,0,0,0,0,0,0,0,0,0,0,0,0,0,0,0,0,0,0,0,0,0,0,0,0,0,0,0,0,0,0,0,0,0,0,0,0,0,0,0,0,0,0,0,0,0,0,0,0,0,0,0,0,0,0,0,0,0,0,0,0,0,0,0,0,0,0,0,0,0,0,0,0,0,0,0,0,0,0,0,0,0,0,0,0,0,0,0,0,0,0,0,0,0,0,0,0,0,0,0,0,0,0,0,0,0,0,0,0,0,0,0,0,0,0,0,0,0,0,0,0,0,0,0,0,0,0,0,0,0,0,0,0,0,0,0,0,0,0,0,0,0,0,0,0,0,0,0,0,0,0,0,0,0,0,0,0,0,0,0,0,0,0,0,0,0,0,0,0,0,0,0,0,0,0,0,0,0,0,0,0,0,0,0,0,0,0,0,0,0,0,0,0,0,0,0,0,0,0,0,0,0,0,0,0,0,0,0,0,0,0,0,0,0,0,0,0,0,0,0,0,0,0,0,0,0,0,0,0,0,0,0,0,0,0,0,0,0,0,0,0,0,0,0,0,0,0,0,0,0,0,0,0,0,0,0,0,0,0,0,0,0,0,0,0,0,0,0,0,0,0,0,0,0,0,0,0,0,0,0,0,0,0,0,0,0,0,0,0,0,0,0,0,0,0,0,0,0,0,0,0,0,0,0,0,0,0,0,0,0,0,0,0,0,0,0,0,0,0,0,0,0,0,0,0,0,0,0,0,0,0,0,0,0,0,0,0,0,0,0,0],"trees":[{"base_weights":[7.931646E-3,-9.68617E0,1.0118412E1,-1.5790479E1,-5.01009E0,5.1369925E0,1.5826917E1,-1.9535025E1,-1.2871493E1,-7.233699E0,-1.7893267E0,2.882991E0,8.399845E0,1.3380655E1,2.0026144E1,-1.5217102E1,-2.151307E1,-1.437892E1,-1.0346488E1,-8.789021E0,-5.059385E0,-2.8812323E0,5.518482E-1,-1.1923813E0,3.7729952E0,6.151441E0,9.697332E0,9.241129E0,1.4775189E1,1.7692327E1,2.2790705E1,-2.0250801E1,-1.3656878E1,-2.6208208E1,-1.98702E1,-9.294695E0,-1.4825153E1,-1.1243296E1,-8.679421E0,-1.1623634E1,-8.209149E0,-3.3548458E0,-6.6245394E0,-8.749437E-1,-3.915464E0,-1.4689831E-1,2.3767402E0,-4.6380315E0,-1.6032341E-1,5.90069E0,2.3278708E0,8.874591E0,5.5870414E0,8.721991E0,1.187896E1,5.6667356E0,1.0491035E1,1.7527369E1,1.2726421E1,2.0822992E1,1.6863398E1,2.0632202E1,2.4447386E1,-1.1789603E0,-9.3730396E-1,-7.9983234E-1,-6.3133043E-1,-1.5011013E0,-1.2559644E0,-1.0745754E0,-9.2954826E-1,-5.2704996E-1,-3.817664E-1,-8.020402E-1,-6.8078107E-1,-4.9318677E-1,-5.998985E-1,-3.242412E-1,-4.6624836E-1,-7.271144E-1,-5.4488134E-1,-3.2888573E-1,-4.435123E-1,-3.404207E-1,-9.333191E-2,-4.9917027E-1,-2.8906608E-1,9.352469E-2,-7.761046E-2,-2.551323E-1,-1.4828019E-1,1.2362218E-1,-3.550672E-2,3.3539036E-1,9.642037E-2,-4.2600036E-1,-1.9174749E-1,1.6541602E-2,-8.987575E-2,1.9877253E-1,3.8809848E-1,-4.6248506E-3,1.6748326E-1,4.7755486E-1,2.9962912E-1,2.296112E-1,3.659986E-1,5.078046E-1,3.6859167E-1,7.620354E-1,5.736378E-1,6.708288E-2,3.4037927E-1,5.6485015E-1,4.5220622E-1,7.7634186E-1,9.9199957E-1,5.3617513E-1,6.9430196E-1,9.576378E-1,1.0914121E0,7.743502E-1,9.368459E-1,9.341919E-1,1.0772107E0,1.2922972E0,1.1137035E0],"categories":[],"categories_nodes":[],"categories_segments":[],"categories_sizes":[],"default_left":[0,0,0,0,0,0,0,0,0,0,0,0,0,0,0,0,0,0,0,0,0,0,0,0,0,0,0,0,0,0,0,0,0,0,0,0,0,0,0,0,0,0,0,0,0,0,0,0,0,0,0,0,0,0,0,0,0,0,0,0,0,0,0,0,0,0,0,0,0,0,0,0,0,0,0,0,0,0,0,0,0,0,0,0,0,0,0,0,0,0,0,0,0,0,0,0,0,0,0,0,0,0,0,0,0,0,0,0,0,0,0,0,0,0,0,0,0,0,0,0,0,0,0,0,0,0,0],"id":0,"left_children":[1,3,5,7,9,11,13,15,17,19,21,23,25,27,29,31,33,35,37,39,41,43,45,47,49,51,53,55,57,59,61,63,65,67,69,71,73,75,77,79,81,83,85,87,89,91,93,95,97,99,101,103,105,107,109,111,113,115,117,119,121,123,125,-1,-1,-1,-1,-1,-1,-1,-1,-1,-1,-1,-1,-1,-1,-1,-1,-1,-1,-1,-1,-1,-1,-1,-1,-1,-1,-1,-1,-1,-1,-1,-1,-1,-1,-1,-1,-1,-1,-1,-1,-1,-1,-1,-1,-1,-1,-1,-1,-1,-1,-1,-1,-1,-1,-1,-1,-1,-1,-1,-1,-1,-1,-1,-1],"loss_changes":[1.0186095E7,1.514364E6,1.4465095E6,2.51287E5,2.1515369E5,1.9977481E5,2.4324E5,8.57575E4,4.908525E4,6.00595E4,3.1373016E4,5.828833E4,3.2319188E4,8.635E4,5.588375E4,2.4619688E4,5.27795E4,1.823225E4,7.1369375E3,1.6933438E4,1.9757328E4,1.7361969E4,4.9784834E3,1.0244411E4,4.0539594E4,6.1965625E3,1.486775E4,1.6819375E4,6.295725E4,1.1936625E4,1.376375E4,3.3042188E3,5.6388438E3,6.671375E3,1.0225625E4,1.2761758E3,1.0724125E4,3.1539062E3,2.3436875E3,3.5645469E3,9.221375E3,1.8238102E4,1.0886125E4,5.2984463E3,6.211789E3,4.1680254E3,2.0861064E3,2.037376E3,1.7841229E3,1.9083047E4,1.9429121E4,1.2997539E3,5.7743594E3,9.347E3,2.7897812E3,4.831379E3,3.16075E3,2.1801875E4,1.47785E4,1.2390938E3,9.3775E3,2.6874375E3,6.269375E3,0E0,0E0,0E0,0E0,0E0,0E0,0E0,0E0,0E0,0E0,0E0,0E0,0E0,0E0,0E0,0E0,0E0,0E0,0E0,0E0,0E0,0E0,0E0,0E0,0E0,0E0,0E0,0E0,0E0,0E0,0E0,0E0,0E0,0E0,0E0,0E0,0E0,0E0,0E0,0E0,0E0,0E0,0E0,0E0,0E0,0E0,0E0,0E0,0E0,0E0,0E0,0E0,0E0,0E0,0E0,0E0,0E0,0E0,0E0,0E0,0E0,0E0,0E0,0E0],"parents":[2147483647,0,0,1,1,2,2,3,3,4,4,5,5,6,6,7,7,8,8,9,9,10,10,11,11,12,12,13,13,14,14,15,15,16,16,17,17,18,18,19,19,20,20,21,21,22,22,23,23,24,24,25,25,26,26,27,27,28,28,29,29,30,30,31,31,32,32,33,33,34,34,35,35,36,36,37,37,38,38,39,39,40,40,41,41,42,42,43,43,44,44,45,45,46,46,47,47,48,48,49,49,50,50,51,51,52,52,53,53,54,54,55,55,56,56,57,57,58,58,59,59,60,60,61,61,62,62],"right_children":[2,4,6,8,10,12,14,16,18,20,22,24,26,28,30,32,34,36,38,40,42,44,46,48,50,52,54,56,58,60,62,64,66,68,70,72,74,76,78,80,82,84,86,88,90,92,94,96,98,100,102,104,106,108,110,112,114,116,118,120,122,124,126,-1,-1,-1,-1,-1,-1,-1,-1,-1,-1,-1,-1,-1,-1,-1,-1,-1,-1,-1,-1,-1,-1,-1,-1,-1,-1,-1,-1,-1,-1,-1,-1,-1,-1,-1,-1,-1,-1,-1,-1,-1,-1,-1,-1,-1,-1,-1,-1,-1,-1,-1,-1,-1,-1,-1,-1,-1,-1,-1,-1,-1,-1,-1,-1],"split_conditions":[6.5E0,-4.1E0,1.67E1,-9.3E0,2.8E0,1.27E1,2.38E1,-5E-1,-3.9E0,4E-1,7.6E0,1.05E1,1.23E1,2.17E1,2.59E1,-1.8E1,-1.54E1,-7.0710677E-1,-8E-1,-4E-1,-7.0710677E-1,6.123234E-17,1.09E1,6.1E0,-7.0710677E-1,6.123234E-17,1.89E1,1.73E1,-7.0710677E-1,6.123234E-17,3.12E1,-2.21E1,-3.9E0,-2.01E1,-1.2E1,7E-1,-6.6E0,5E-1,5E-1,-4.1E0,3.5E1,4.2E0,-1.1E0,-7.0710677E-1,3.975E0,6.123234E-17,6.123234E-17,1.8E0,6.123234E-17,1.57E1,8.7E0,5.6E1,1.62E1,6.123234E-17,6.123234E-17,8.3E0,5.5E1,2.75E1,1.94E1,2.78E1,2.72E1,2.85E1,6.123234E-17,-1.1789603E0,-9.3730396E-1,-7.9983234E-1,-6.3133043E-1,-1.5011013E0,-1.2559644E0,-1.0745754E0,-9.2954826E-1,-5.2704996E-1,-3.817664E-1,-8.020402E-1,-6.8078107E-1,-4.9318677E-1,-5.998985E-1,-3.242412E-1,-4.6624836E-1,-7.271144E-1,-5.4488134E-1,-3.2888573E-1,-4.435123E-1,-3.404207E-1,-9.333191E-2,-4.9917027E-1,-2.8906608E-1,9.352469E-2,-7.761046E-2,-2.551323E-1,-1.4828019E-1,1.2362218E-1,-3.550672E-2,3.3539036E-1,9.642037E-2,-4.2600036E-1,-1.9174749E-1,1.6541602E-2,-8.987575E-2,1.9877253E-1,3.8809848E-1,-4.6248506E-3,1.6748326E-1,4.7755486E-1,2.9962912E-1,2.296112E-1,3.659986E-1,5.078046E-1,3.6859167E-1,7.620354E-1,5.736378E-1,6.708288E-2,3.4037927E-1,5.6485015E-1,4.5220622E-1,7.7634186E-1,9.9199957E-1,5.3617513E-1,6.9430196E-1,9.576378E-1,1.0914121E0,7.743502E-1,9.368459E-1,9.341919E-1,1.0772107E0,1.2922972E0,1.1137035E0],"split_indices":[28,28,28,24,24,24,24,19,24,28,24,7,28,7,28,24,24,19,24,7,19,19,24,7,19,19,24,7,19,19,7,24,7,24,24,7,24,19,19,7,3,7,24,19,31,19,19,7,19,7,24,3,24,19,19,24,3,7,24,7,24,7,19,0,0,0,0,0,0,0,0,0,0,0,0,0,0,0,0,0,0,0,0,0,0,0,0,0,0,0,0,0,0,0,0,0,0,0,0,0,0,0,0,0,0,0,0,0,0,0,0,0,0,0,0,0,0,0,0,0,0,0,0,0,0,0,0],"split_type":[0,0,0,0,0,0,0,0,0,0,0,0,0,0,0,0,0,0,0,0,0,0,0,0,0,0,0,0,0,0,0,0,0,0,0,0,0,0,0,0,0,0,0,0,0,0,0,0,0,0,0,0,0,0,0,0,0,0,0,0,0,0,0,0,0,0,0,0,0,0,0,0,0,0,0,0,0,0,0,0,0,0,0,0,0,0,0,0,0,0,0,0,0,0,0,0,0,0,0,0,0,0,0,0,0,0,0,0,0,0,0,0,0,0,0,0,0,0,0,0,0,0,0,0,0,0,0],"sum_hessian":[1.03925E5,5.3055E4,5.087E4,2.3012E4,3.0043E4,2.7166E4,2.3704E4,1.0078E4,1.2934E4,1.7772E4,1.2271E4,1.6068E4,1.1098E4,1.4981E4,8.723E3,3.169E3,6.909E3,8.096E3,4.838E3,1.0359E4,7.413E3,8.368E3,3.903E3,2.88E3,1.3188E4,4.063E3,7.035E3,3.777E3,1.1204E4,4.734E3,3.989E3,7.47E2,2.422E3,1.787E3,5.122E3,6.55E2,7.441E3,3.142E3,1.696E3,1.756E3,8.603E3,3.55E3,3.863E3,2.847E3,5.521E3,2.823E3,1.08E3,6.63E2,2.217E3,5.333E3,7.855E3,6.95E2,3.368E3,4.865E3,2.17E3,9.8E2,2.797E3,4.778E3,6.426E3,9.86E2,3.748E3,1.738E3,2.251E3,2.28E2,5.19E2,7.36E2,1.686E3,3.91E2,1.396E3,2.252E3,2.87E3,3.71E2,2.84E2,3.705E3,3.736E3,1.116E3,2.026E3,3.88E2,1.308E3,3.46E2,1.41E3,2.484E3,6.119E3,1.068E3,2.482E3,7.73E2,3.09E3,5.63E2,2.284E3,2.452E3,3.069E3,4.99E2,2.324E3,1E2,9.8E2,1.12E2,5.51E2,1.706E3,5.11E2,2.623E3,2.71E3,2.332E3,5.523E3,5.61E2,1.34E2,2.142E3,1.226E3,2.356E3,2.509E3,2.3E2,1.94E3,2.05E2,7.75E2,1.792E3,1.005E3,2.566E3,2.212E3,2.36E3,4.066E3,3.78E2,6.08E2,2.166E3,1.582E3,5.61E2,1.177E3,1.363E3,8.88E2],"tree_param":{"num_deleted":"0","num_feature":"33","num_nodes":"127","size_leaf_vector":"1"}},{"base_weights":[-1.0395665E-2,-8.756228E0,9.881495E0,-1.4573511E1,-4.341134E0,5.2667675E0,1.5285481E1,-1.9384516E1,-1.2631547E1,8.358779E-1,-5.938195E0,7.889597E0,2.6928637E0,1.3174055E1,1.9313799E1,-1.4910638E1,-2.236674E1,-7.5545897E0,-1.4692443E1,-2.6383262E0,3.2540755E0,-8.613077E0,-3.5091913E0,5.3549576E0,1.01533985E1,5.527038E-1,4.996746E0,1.7778282E1,1.162692E1,2.2319056E1,1.734946E1,-1.9045591E1,-1.3310696E1,-2.641694E1,-2.0982224E1,-9.7191305E0,-5.535633E0,-1.6783907E1,-1.307647E1,-4.740469E0,-1.4251908E0,1.9986644E0,6.1625314E0,-9.953921E0,-7.3426957E0,-4.791331E0,-2.0486295E0,7.4995875E0,3.2983022E0,1.2278146E1,8.394028E0,-7.092269E-1,2.0340304E0,4.0625477E0,7.2077065E0,1.53693905E1,1.9539667E1,1.0171461E1,1.3212103E1,2.0704739E1,2.4883856E1,1.5985866E1,2.0868635E1,-1.1003314E0,-8.862977E-1,-8.0303985E-1,-6.200508E-1,-1.5290542E0,-1.2790293E0,-1.1026587E0,-9.6902287E-1,-6.0357136E-1,-4.3909502E-1,-3.6902103E-1,-2.1664107E-1,-8.754965E-1,-7.469372E-1,-5.069126E-1,-6.7093277E-1,-3.1814033E-1,-2.0061825E-1,-1.4854316E-1,-3.7766807E-2,5.019396E-2,1.6844021E-1,2.5774944E-1,4.2685777E-1,-4.159123E-1,-5.359462E-1,-2.816122E-1,-4.1115475E-1,-1.79044E-1,-3.0105197E-1,-1.5310692E-2,-1.4640981E-1,3.1765017E-1,5.995771E-1,1.1490989E-1,2.3414767E-1,5.1250327E-1,7.642774E-1,3.4734282E-1,4.8242402E-1,-1.06565356E-1,-7.128797E-3,5.821919E-2,1.4074127E-1,1.5930222E-1,2.5517356E-1,3.2076168E-1,4.216748E-1,6.7391014E-1,8.1896955E-1,9.4618315E-1,1.0701617E0,6.170238E-1,4.5574814E-1,7.913246E-1,6.143319E-1,9.4742805E-1,1.0815877E0,1.2069093E0,1.3319101E0,7.520273E-1,8.624266E-1,9.790475E-1,1.1299533E0],"categories":[],"categories_nodes":[],"categories_segments":[],"categories_sizes":[],"default_left":[0,0,0,0,0,0,0,0,0,0,0,0,0,0,0,0,0,0,0,0,0,0,0,0,0,0,0,0,0,0,0,0,0,0,0,0,0,0,0,0,0,0,0,0,0,0,0,0,0,0,0,0,0,0,0,0,0,0,0,0,0,0,0,0,0,0,0,0,0,0,0,0,0,0,0,0,0,0,0,0,0,0,0,0,0,0,0,0,0,0,0,0,0,0,0,0,0,0,0,0,0,0,0,0,0,0,0,0,0,0,0,0,0,0,0,0,0,0,0,0,0,0,0,0,0,0,0],"id":1,"left_children":[1,3,5,7,9,11,13,15,17,19,21,23,25,27,29,31,33,35,37,39,41,43,45,47,49,51,53,55,57,59,61,63,65,67,69,71,73,75,77,79,81,83,85,87,89,91,93,95,97,99,101,103,105,107,109,111,113,115,117,119,121,123,125,-1,-1,-1,-1,-1,-1,-1,-1,-1,-1,-1,-1,-1,-1,-1,-1,-1,-1,-1,-1,-1,-1,-1,-1,-1,-1,-1,-1,-1,-1,-1,-1,-1,-1,-1,-1,-1,-1,-1,-1,-1,-1,-1,-1,-1,-1,-1,-1,-1,-1,-1,-1,-1,-1,-1,-1,-1,-1,-1,-1,-1,-1,-1,-1],"loss_changes":[9.037995E6,1.424029E6,1.222452E6,2.232725E5,2.606455E5,1.7849981E5,1.917995E5,9.14335E4,1.78253E5,6.245554E4,1.5650275E5,7.509519E4,6.58119E4,1.0534725E5,4.54405E4,1.7966125E4,2.2577E4,2.1464625E4,4.075675E4,7.7738555E3,1.5991367E4,1.9456188E4,2.3637922E4,2.7238188E4,2.5754188E4,1.2939087E4,1.3247578E4,1.550475E4,2.5461375E4,1.2175125E4,2.22155E4,2.6030625E3,4.7767188E3,2.8640625E3,4.854375E3,5.13E3,5.626297E3,6.813E3,6.745E3,1.2927227E3,2.0022439E3,4.1714707E3,3.1165273E3,6.8868125E3,8.824844E3,9.987141E3,9.0489375E3,1.5503781E4,4.361035E3,1.8940094E4,6.8079062E3,3.0118633E3,2.158708E3,4.108586E3,1.7993438E3,2.793375E3,2.0608125E3,1.31510625E4,1.2646E4,2.6621875E3,8.993125E2,3.7881875E3,2.4743125E3,0E0,0E0,0E0,0E0,0E0,0E0,0E0,0E0,0E0,0E0,0E0,0E0,0E0,0E0,0E0,0E0,0E0,0E0,0E0,0E0,0E0,0E0,0E0,0E0,0E0,0E0,0E0,0E0,0E0,0E0,0E0,0E0,0E0,0E0,0E0,0E0,0E0,0E0,0E0,0E0,0E0,0E0,0E0,0E0,0E0,0E0,0E0,0E0,0E0,0E0,0E0,0E0,0E0,0E0,0E0,0E0,0E0,0E0,0E0,0E0,0E0,0E0,0E0,0E0],"parents":[2147483647,0,0,1,1,2,2,3,3,4,4,5,5,6,6,7,7,8,8,9,9,10,10,11,11,12,12,13,13,14,14,15,15,16,16,17,17,18,18,19,19,20,20,21,21,22,22,23,23,24,24,25,25,26,26,27,27,28,28,29,29,30,30,31,31,32,32,33,33,34,34,35,35,36,36,37,37,38,38,39,39,40,40,41,41,42,42,43,43,44,44,45,45,46,46,47,47,48,48,49,49,50,50,51,51,52,52,53,53,54,54,55,55,56,56,57,57,58,58,59,59,60,60,61,61,62,62],"right_children":[2,4,6,8,10,12,14,16,18,20,22,24,26,28,30,32,34,36,38,40,42,44,46,48,50,52,54,56,58,60,62,64,66,68,70,72,74,76,78,80,82,84,86,88,90,92,94,96,98,100,102,104,106,108,110,112,114,116,118,120,122,124,126,-1,-1,-1,-1,-1,-1,-1,-1,-1,-1,-1,-1,-1,-1,-1,-1,-1,-1,-1,-1,-1,-1,-1,-1,-1,-1,-1,-1,-1,-1,-1,-1,-1,-1,-1,-1,-1,-1,-1,-1,-1,-1,-1,-1,-1,-1,-1,-1,-1,-1,-1,-1,-1,-1,-1,-1,-1,-1,-1,-1,-1,-1,-1,-1],"split_conditions":[7.2E0,-3.8E0,1.72E1,-1.2E1,-7.0710677E-1,6.123234E-17,2.47E1,-7.0710677E-1,-7.0710677E-1,9.4E0,1.5E0,1.17E1,1.2E1,-7.0710677E-1,6.123234E-17,-1.8E1,-1.72E1,1.9E0,-7.7E0,5.1E0,1.61E1,-1.1E0,4.5E0,-7.0710677E-1,-7.0710677E-1,3.9E0,9.8E0,2.71E1,2.06E1,3.18E1,2.98E1,-2.21E1,-4.7E0,-2.21E1,-1.69E1,-2.6E0,-7.9E0,-1.19E1,-8.660254E-1,2.3E0,1.4E1,1.4E1,8E0,6.123234E-17,6.123234E-17,5E-1,6.123234E-17,2.07E1,9.7E0,2.33E1,1.44E1,-2.2E0,9.8E0,1.44E1,1.27E1,2.39E1,3.23E1,6.123234E-17,2.5881904E-1,2.87E1,3.49E1,2.72E1,3.2E1,-1.1003314E0,-8.862977E-1,-8.0303985E-1,-6.200508E-1,-1.5290542E0,-1.2790293E0,-1.1026587E0,-9.6902287E-1,-6.0357136E-1,-4.3909502E-1,-3.6902103E-1,-2.1664107E-1,-8.754965E-1,-7.469372E-1,-5.069126E-1,-6.7093277E-1,-3.1814033E-1,-2.0061825E-1,-1.4854316E-1,-3.7766807E-2,5.019396E-2,1.6844021E-1,2.5774944E-1,4.2685777E-1,-4.159123E-1,-5.359462E-1,-2.816122E-1,-4.1115475E-1,-1.79044E-1,-3.0105197E-1,-1.5310692E-2,-1.4640981E-1,3.1765017E-1,5.995771E-1,1.1490989E-1,2.3414767E-1,5.1250327E-1,7.642774E-1,3.4734282E-1,4.8242402E-1,-1.06565356E-1,-7.128797E-3,5.821919E-2,1.4074127E-1,1.5930222E-1,2.5517356E-1,3.2076168E-1,4.216748E-1,6.7391014E-1,8.1896955E-1,9.4618315E-1,1.0701617E0,6.170238E-1,4.5574814E-1,7.913246E-1,6.143319E-1,9.4742805E-1,1.0815877E0,1.2069093E0,1.3319101E0,7.520273E-1,8.624266E-1,9.790475E-1,1.1299533E0],"split_indices":[24,24,24,24,19,19,24,19,19,7,24,24,24,19,19,24,24,7,24,7,7,24,24,19,19,6,6,7,24,7,24,24,7,24,6,7,24,6,18,7,15,15,26,19,19,19,19,7,24,7,24,6,24,24,6,7,7,19,19,7,7,24,24,0,0,0,0,0,0,0,0,0,0,0,0,0,0,0,0,0,0,0,0,0,0,0,0,0,0,0,0,0,0,0,0,0,0,0,0,0,0,0,0,0,0,0,0,0,0,0,0,0,0,0,0,0,0,0,0,0,0,0,0,0,0,0,0],"split_type":[0,0,0,0,0,0,0,0,0,0,0,0,0,0,0,0,0,0,0,0,0,0,0,0,0,0,0,0,0,0,0,0,0,0,0,0,0,0,0,0,0,0,0,0,0,0,0,0,0,0,0,0,0,0,0,0,0,0,0,0,0,0,0,0,0,0,0,0,0,0,0,0,0,0,0,0,0,0,0,0,0,0,0,0,0,0,0,0,0,0,0,0,0,0,0,0,0,0,0,0,0,0,0,0,0,0,0,0,0,0,0,0,0,0,0,0,0,0,0,0,0,0,0,0,0,0,0],"sum_hessian":[1.04468E5,5.5446E4,4.9022E4,2.3923E4,3.1523E4,2.6443E4,2.2579E4,6.877E3,1.7046E4,7.432E3,2.4091E4,1.3096E4,1.3347E4,1.4817E4,7.762E3,2.753E3,4.124E3,4.923E3,1.2123E4,3.05E3,4.382E3,1.1464E4,1.2627E4,6.18E3,6.916E3,6.92E3,6.427E3,3.724E3,1.1093E4,3.064E3,4.698E3,7.65E2,1.988E3,1.046E3,3.078E3,2.374E3,2.549E3,5.28E3,6.843E3,1.115E3,1.935E3,3.062E3,1.32E3,5.574E3,5.89E3,6.723E3,5.904E3,3.024E3,3.156E3,3.13E3,3.786E3,3.737E3,3.183E3,4.52E3,1.907E3,1.577E3,2.147E3,5.787E3,5.306E3,1.886E3,1.178E3,3.39E3,1.308E3,2.31E2,5.34E2,4.9E2,1.498E3,1.69E2,8.77E2,1.837E3,1.241E3,6.73E2,1.701E3,1.004E3,1.545E3,3.783E3,1.497E3,7.17E2,6.126E3,3.43E2,7.72E2,5.84E2,1.351E3,1.775E3,1.287E3,9.29E2,3.91E2,1.78E3,3.794E3,2.004E3,3.886E3,3.39E3,3.333E3,1.981E3,3.923E3,2.411E3,6.13E2,1.834E3,1.322E3,1.872E3,1.258E3,1.761E3,2.025E3,1.064E3,2.673E3,1.507E3,1.676E3,2.456E3,2.064E3,1.162E3,7.45E2,5.54E2,1.023E3,1.622E3,5.25E2,1.892E3,3.895E3,1.383E3,3.923E3,6.59E2,1.227E3,8.37E2,3.41E2,1.946E3,1.444E3,7.57E2,5.51E2],"tree_param":{"num_deleted":"0","num_feature":"33","num_nodes":"127","size_leaf_vector":"1"}},{"base_weights":[-9.148097E-4,-8.624341E0,9.04002E0,-1.3989013E1,-4.547048E0,4.687471E0,1.4509073E1,-1.8437576E1,-1.2107765E1,-7.110138E0,-2.0242698E0,2.2911463E0,7.3247504E0,1.2567883E1,1.8482393E1,-2.1416435E1,-1.4985376E1,-1.3696278E1,-9.189338E0,-8.467533E0,-4.982925E0,-4.680853E0,-9.2192996E-1,9.3405104E-1,4.271325E0,4.2835236E0,8.55804E0,1.0983438E1,1.4583405E1,1.9794268E1,1.5126131E1,-2.4574888E1,-1.9751617E1,-1.8469568E1,-1.3125065E1,-1.4644067E1,-1.1544869E1,-1.2693455E1,-8.094857E0,-7.5546427E0,-1.039325E1,-3.809344E0,-6.6404223E0,-6.6895823E0,-3.6933136E0,-3.4953072E0,1.066452E0,1.8719295E0,-1.1706489E0,5.470787E0,2.8196995E0,2.0861099E0,5.0433874E0,9.893897E0,6.6302543E0,1.1905972E1,9.107111E0,1.608288E1,1.2301774E1,1.7495724E1,2.1995638E1,1.3151062E1,1.6225214E1,-1.3236936E0,-1.1430012E0,-1.0378135E0,-9.121203E-1,-8.688082E-1,-1.0756997E0,-4.5174804E-1,-7.128727E-1,-5.8453053E-1,-7.7125496E-1,-6.211223E-1,-4.337421E-1,-7.169609E-1,-5.533772E-1,-5.527129E-1,-2.80472E-1,-4.3989465E-1,-2.4194376E-1,-5.8415335E-1,-4.6577778E-1,-2.3601694E-1,-7.527493E-2,-3.890769E-1,-2.6397476E-1,-4.170761E-1,-2.9838908E-1,-1.4899999E-1,-2.7550873E-1,-2.601243E-1,-8.2893565E-2,-1.9195989E-2,2.2404738E-1,2.0396566E-1,3.4025323E-2,-1.1085755E-1,1.3792606E-2,1.8380885E-1,3.631586E-1,8.941444E-2,2.0146923E-1,6.48968E-2,1.3886042E-1,2.793075E-1,1.6597968E-1,4.186936E-1,6.787472E-1,2.046705E-1,4.1907898E-1,7.281491E-1,5.325519E-1,3.8075957E-1,5.5369705E-1,6.6222733E-1,8.6994404E-1,5.54485E-1,6.71859E-1,9.5730096E-1,8.018594E-1,1.0484146E0,1.1991327E0,5.073935E-1,6.920926E-1,7.8728116E-1,9.2719793E-1],"categories":[],"categories_nodes":[],"categories_segments":[],"categories_sizes":[],"default_left":[0,0,0,0,0,0,0,0,0,0,0,0,0,0,0,0,0,0,0,0,0,0,0,0,0,0,0,0,0,0,0,0,0,0,0,0,0,0,0,0,0,0,0,0,0,0,0,0,0,0,0,0,0,0,0,0,0,0,0,0,0,0,0,0,0,0,0,0,0,0,0,0,0,0,0,0,0,0,0,0,0,0,0,0,0,0,0,0,0,0,0,0,0,0,0,0,0,0,0,0,0,0,0,0,0,0,0,0,0,0,0,0,0,0,0,0,0,0,0,0,0,0,0,0,0,0,0],"id":2,"left_children":[1,3,5,7,9,11,13,15,17,19,21,23,25,27,29,31,33,35,37,39,41,43,45,47,49,51,53,55,57,59,61,63,65,67,69,71,73,75,77,79,81,83,85,87,89,91,93,95,97,99,101,103,105,107,109,111,113,115,117,119,121,123,125,-1,-1,-1,-1,-1,-1,-1,-1,-1,-1,-1,-1,-1,-1,-1,-1,-1,-1,-1,-1,-1,-1,-1,-1,-1,-1,-1,-1,-1,-1,-1,-1,-1,-1,-1,-1,-1,-1,-1,-1,-1,-1,-1,-1,-1,-1,-1,-1,-1,-1,-1,-1,-1,-1,-1,-1,-1,-1,-1,-1,-1,-1,-1,-1],"loss_changes":[8.1243775E6,1.1665512E6,1.2109058E6,1.925195E5,1.95941E5,1.7901619E5,1.73649E5,7.004975E4,7.492575E4,4.336225E4,4.472494E4,3.988617E4,5.0545438E4,4.821475E4,3.22695E4,1.8817625E4,2.0323938E4,2.12025E4,2.1792375E4,1.60508125E4,1.1369734E4,8.860281E3,5.5245312E4,1.7390742E4,1.0494273E4,6.489758E3,2.4641375E4,1.45789375E4,2.2601375E4,2.6508625E4,4.3083438E3,3.50775E3,3.274E3,3.2945E3,9.467844E3,1.6594375E4,7.9771562E3,3.4724531E3,3.1955812E4,2.0985469E4,3.9889688E3,7.195949E3,3.7279844E3,1.7089688E3,3.8780352E3,1.4753301E4,3.0166104E4,1.602401E4,4.112001E3,1.0601055E4,3.402709E3,5.421904E2,2.6872422E3,3.1583625E4,1.7426062E4,1.8800812E4,8.1347812E3,1.47778125E4,3.4938125E3,5.96325E3,5.03125E3,1.4154688E3,1.1914688E3,0E0,0E0,0E0,0E0,0E0,0E0,0E0,0E0,0E0,0E0,0E0,0E0,0E0,0E0,0E0,0E0,0E0,0E0,0E0,0E0,0E0,0E0,0E0,0E0,0E0,0E0,0E0,0E0,0E0,0E0,0E0,0E0,0E0,0E0,0E0,0E0,0E0,0E0,0E0,0E0,0E0,0E0,0E0,0E0,0E0,0E0,0E0,0E0,0E0,0E0,0E0,0E0,0E0,0E0,0E0,0E0,0E0,0E0,0E0,0E0,0E0,0E0,0E0,0E0],"parents":[2147483647,0,0,1,1,2,2,3,3,4,4,5,5,6,6,7,7,8,8,9,9,10,10,11,11,12,12,13,13,14,14,15,15,16,16,17,17,18,18,19,19,20,20,21,21,22,22,23,23,24,24,25,25,26,26,27,27,28,28,29,29,30,30,31,31,32,32,33,33,34,34,35,35,36,36,37,37,38,38,39,39,40,40,41,41,42,42,43,43,44,44,45,45,46,46,47,47,48,48,49,49,50,50,51,51,52,52,53,53,54,54,55,55,56,56,57,57,58,58,59,59,60,60,61,61,62,62],"right_children":[2,4,6,8,10,12,14,16,18,20,22,24,26,28,30,32,34,36,38,40,42,44,46,48,50,52,54,56,58,60,62,64,66,68,70,72,74,76,78,80,82,84,86,88,90,92,94,96,98,100,102,104,106,108,110,112,114,116,118,120,122,124,126,-1,-1,-1,-1,-1,-1,-1,-1,-1,-1,-1,-1,-1,-1,-1,-1,-1,-1,-1,-1,-1,-1,-1,-1,-1,-1,-1,-1,-1,-1,-1,-1,-1,-1,-1,-1,-1,-1,-1,-1,-1,-1,-1,-1,-1,-1,-1,-1,-1,-1,-1,-1,-1,-1,-1,-1,-1,-1,-1,-1,-1,-1,-1,-1],"split_conditions":[6.5E0,-4.1E0,1.72E1,-1.2E1,1.1E0,1.15E1,2.5E1,9E0,-4.4E0,6E-1,6.9E0,1.07E1,1.66E1,2.04E1,-2.5881904E-1,-1.65E1,-5.4E0,-1.08E1,9E0,2E1,2E1,3.1E0,9E0,2E1,2E1,1.25E1,5E-1,2E1,4.6E1,3.04E1,1.66E1,-2.21E1,-1.64E1,2E1,-2.5881904E-1,-2.5881904E-1,9E0,-9.2E0,3E-1,9E0,-1.22E1,9E0,-7.6E0,4E-1,-2.5881904E-1,1E0,1.4E1,5E-1,-1E-1,6E0,1.36E1,1.09E1,-2.5881904E-1,2.3E1,1.09E1,5E-1,2.1E1,2.52E1,1.64E1,2E1,3.35E1,2.16E1,3.04E1,-1.3236936E0,-1.1430012E0,-1.0378135E0,-9.121203E-1,-8.688082E-1,-1.0756997E0,-4.5174804E-1,-7.128727E-1,-5.8453053E-1,-7.7125496E-1,-6.211223E-1,-4.337421E-1,-7.169609E-1,-5.533772E-1,-5.527129E-1,-2.80472E-1,-4.3989465E-1,-2.4194376E-1,-5.8415335E-1,-4.6577778E-1,-2.3601694E-1,-7.527493E-2,-3.890769E-1,-2.6397476E-1,-4.170761E-1,-2.9838908E-1,-1.4899999E-1,-2.7550873E-1,-2.601243E-1,-8.2893565E-2,-1.9195989E-2,2.2404738E-1,2.0396566E-1,3.4025323E-2,-1.1085755E-1,1.3792606E-2,1.8380885E-1,3.631586E-1,8.941444E-2,2.0146923E-1,6.48968E-2,1.3886042E-1,2.793075E-1,1.6597968E-1,4.186936E-1,6.787472E-1,2.046705E-1,4.1907898E-1,7.281491E-1,5.325519E-1,3.8075957E-1,5.5369705E-1,6.6222733E-1,8.6994404E-1,5.54485E-1,6.71859E-1,9.5730096E-1,8.018594E-1,1.0484146E0,1.1991327E0,5.073935E-1,6.920926E-1,7.8728116E-1,9.2719793E-1],"split_indices":[24,24,24,24,30,30,24,15,30,24,7,24,7,30,18,24,7,6,15,15,15,7,15,15,15,7,18,15,3,7,6,6,6,15,18,18,15,6,7,15,6,15,6,7,18,6,7,18,6,15,24,7,18,7,6,18,24,7,6,15,7,26,24,0,0,0,0,0,0,0,0,0,0,0,0,0,0,0,0,0,0,0,0,0,0,0,0,0,0,0,0,0,0,0,0,0,0,0,0,0,0,0,0,0,0,0,0,0,0,0,0,0,0,0,0,0,0,0,0,0,0,0,0,0,0,0,0],"split_type":[0,0,0,0,0,0,0,0,0,0,0,0,0,0,0,0,0,0,0,0,0,0,0,0,0,0,0,0,0,0,0,0,0,0,0,0,0,0,0,0,0,0,0,0,0,0,0,0,0,0,0,0,0,0,0,0,0,0,0,0,0,0,0,0,0,0,0,0,0,0,0,0,0,0,0,0,0,0,0,0,0,0,0,0,0,0,0,0,0,0,0,0,0,0,0,0,0,0,0,0,0,0,0,0,0,0,0,0,0,0,0,0,0,0,0,0,0,0,0,0,0,0,0,0,0,0,0],"sum_hessian":[1.04205E5,5.3334E4,5.0871E4,2.303E4,3.0304E4,2.8328E4,2.2543E4,6.842E3,1.6188E4,1.5031E4,1.5273E4,1.4843E4,1.3485E4,1.5147E4,7.396E3,3.67E3,3.172E3,1.048E4,5.708E3,9.174E3,5.857E3,4.478E3,1.0795E4,8.808E3,6.035E3,3.892E3,9.593E3,8.484E3,6.663E3,5.314E3,2.082E3,1.262E3,2.408E3,1.101E3,2.071E3,7.271E3,3.209E3,1.356E3,4.352E3,6.227E3,2.947E3,3.431E3,2.426E3,1.474E3,3.004E3,4.705E3,6.09E3,6.093E3,2.715E3,3.303E3,2.732E3,1.001E3,2.891E3,5.664E3,3.929E3,5.684E3,2.8E3,4.017E3,2.646E3,2.604E3,2.71E3,7.49E2,1.333E3,5.92E2,6.7E2,1.438E3,9.7E2,8.15E2,2.86E2,4.51E2,1.62E3,1.524E3,5.747E3,2.455E3,7.54E2,6.7E2,6.86E2,1.985E3,2.367E3,4.27E3,1.957E3,1.337E3,1.61E3,2.458E3,9.73E2,1.317E3,1.109E3,4.45E2,1.029E3,2.159E3,8.45E2,2.438E3,2.267E3,4.275E3,1.815E3,2.135E3,3.958E3,1.575E3,1.14E3,1.652E3,1.651E3,1.476E3,1.256E3,4.69E2,5.32E2,2.197E3,6.94E2,4.011E3,1.653E3,1.606E3,2.323E3,1.82E3,3.864E3,1.595E3,1.205E3,1.276E3,2.741E3,1.285E3,1.361E3,1.216E3,1.388E3,1.794E3,9.16E2,1.43E2,6.06E2,1.111E3,2.22E2],"tree_param":{"num_deleted":"0","num_feature":"33","num_nodes":"127","size_leaf_vector":"1"}},{"base_weights":[-2.7782872E-2,-8.19138E0,8.817667E0,-1.3436829E1,-4.03747E0,4.8106236E0,1.3932261E1,-1.7096144E1,-1.1291064E1,-6.338697E0,-1.8162256E0,2.4901097E0,7.1591315E0,1.0314536E1,1.5806117E1,-1.9866924E1,-1.4927223E1,-1.2186989E1,-8.495279E0,-7.0521946E0,-3.7719884E0,-5.2277155E0,-1.151605E0,-1.1585789E0,3.141453E0,4.0523643E0,8.218676E0,6.872838E0,1.15628195E1,1.8487425E1,1.3310999E1,-1.7437296E1,-2.1549522E1,-1.612117E1,-1.265531E1,-1.1088434E1,-1.4063792E1,-9.0625E0,-5.871687E0,-9.436254E0,-6.475696E0,-4.370153E0,-1.7958933E0,-8.982706E0,-4.630123E0,-1.6788032E0,1.1802826E0,-4.122733E0,-2.1854563E-1,1.982302E0,3.9957905E0,6.780882E-1,4.902552E0,7.550698E0,1.0190954E1,3.122994E0,7.852176E0,1.2736643E1,9.526063E0,1.6930895E1,2.1156878E1,1.4976679E1,1.1686132E1,-9.614998E-1,-8.070263E-1,-1.2169164E0,-1.0131501E0,-6.889936E-1,-8.427E-1,-6.6728705E-1,-5.006096E-1,-6.672935E-1,-5.125151E-1,-8.7243605E-1,-6.488338E-1,-3.62567E-1,-4.7944853E-1,6.027369E-2,-3.0716032E-1,-6.025309E-1,-4.3720713E-1,-2.4215424E-1,-3.782105E-1,-1.3433926E-1,-2.4155886E-1,-1.22625664E-1,-2.0098653E-2,-5.931913E-1,-4.0306053E-1,-2.0668714E-1,-3.2375863E-1,-3.8016535E-2,-1.602602E-1,3.0139014E-2,1.4925294E-1,-3.3304343E-1,-1.6450071E-1,1.2347068E-2,-9.111414E-2,1.730295E-1,7.082672E-2,1.8353474E-1,3.203998E-1,-1.2942238E-1,7.116997E-2,2.6982856E-1,1.6354248E-1,4.2080164E-1,2.866536E-1,7.2496223E-1,4.942293E-1,1.8502964E-2,2.2244899E-1,4.1834304E-1,3.0924517E-1,5.6507385E-1,6.899457E-1,4.4182315E-1,5.6052613E-1,7.9185957E-1,9.039239E-1,1.0149219E0,1.1536586E0,6.805759E-1,8.5973036E-1,4.8811314E-1,6.5208E-1],"categories":[],"categories_nodes":[],"categories_segments":[],"categories_sizes":[],"default_left":[0,0,0,0,0,0,0,0,0,0,0,0,0,0,0,0,0,0,0,0,0,0,0,0,0,0,0,0,0,0,0,0,0,0,0,0,0,0,0,0,0,0,0,0,0,0,0,0,0,0,0,0,0,0,0,0,0,0,0,0,0,0,0,0,0,0,0,0,0,0,0,0,0,0,0,0,0,0,0,0,0,0,0,0,0,0,0,0,0,0,0,0,0,0,0,0,0,0,0,0,0,0,0,0,0,0,0,0,0,0,0,0,0,0,0,0,0,0,0,0,0,0,0,0,0,0,0],"id":3,"left_children":[1,3,5,7,9,11,13,15,17,19,21,23,25,27,29,31,33,35,37,39,41,43,45,47,49,51,53,55,57,59,61,63,65,67,69,71,73,75,77,79,81,83,85,87,89,91,93,95,97,99,101,103,105,107,109,111,113,115,117,119,121,123,125,-1,-1,-1,-1,-1,-1,-1,-1,-1,-1,-1,-1,-1,-1,-1,-1,-1,-1,-1,-1,-1,-1,-1,-1,-1,-1,-1,-1,-1,-1,-1,-1,-1,-1,-1,-1,-1,-1,-1,-1,-1,-1,-1,-1,-1,-1,-1,-1,-1,-1,-1,-1,-1,-1,-1,-1,-1,-1,-1,-1,-1,-1,-1,-1],"loss_changes":[7.5151095E6,1.1792162E6,1.0236285E6,1.87612E5,1.5438394E5,1.5262412E5,1.48584E5,5.282225E4,3.7669125E4,2.7141375E4,3.484536E4,3.348921E4,4.5787938E4,3.2099188E4,9.644675E4,1.547775E4,1.3255625E4,2.3385375E4,5.3979062E3,1.5891625E4,3.8089297E3,5.581758E3,1.5819018E4,5.9480713E3,1.18321875E4,1.0157848E4,1.359675E4,7.3055156E3,1.3016125E4,2.857775E4,2.009675E4,3.3905625E3,7.71225E3,5.3423125E3,2.99425E3,1.34990625E4,1.5272875E4,2.8005625E3,1.264125E3,3.9803281E3,1.6579438E4,1.9101289E3,6.87302E2,8.1500977E2,1.955125E3,1.4709701E4,2.4714895E3,1.0644521E3,1.2113035E3,4.239662E3,5.3733203E3,1.741979E3,2.262789E3,1.2152344E4,3.3188438E3,1.5132505E3,1.3057969E3,5.154E3,2.2392344E3,5.241125E3,3.744625E3,1.09538125E4,9.771656E3,0E0,0E0,0E0,0E0,0E0,0E0,0E0,0E0,0E0,0E0,0E0,0E0,0E0,0E0,0E0,0E0,0E0,0E0,0E0,0E0,0E0,0E0,0E0,0E0,0E0,0E0,0E0,0E0,0E0,0E0,0E0,0E0,0E0,0E0,0E0,0E0,0E0,0E0,0E0,0E0,0E0,0E0,0E0,0E0,0E0,0E0,0E0,0E0,0E0,0E0,0E0,0E0,0E0,0E0,0E0,0E0,0E0,0E0,0E0,0E0,0E0,0E0,0E0,0E0],"parents":[2147483647,0,0,1,1,2,2,3,3,4,4,5,5,6,6,7,7,8,8,9,9,10,10,11,11,12,12,13,13,14,14,15,15,16,16,17,17,18,18,19,19,20,20,21,21,22,22,23,23,24,24,25,25,26,26,27,27,28,28,29,29,30,30,31,31,32,32,33,33,34,34,35,35,36,36,37,37,38,38,39,39,40,40,41,41,42,42,43,43,44,44,45,45,46,46,47,47,48,48,49,49,50,50,51,51,52,52,53,53,54,54,55,55,56,56,57,57,58,58,59,59,60,60,61,61,62,62],"right_children":[2,4,6,8,10,12,14,16,18,20,22,24,26,28,30,32,34,36,38,40,42,44,46,48,50,52,54,56,58,60,62,64,66,68,70,72,74,76,78,80,82,84,86,88,90,92,94,96,98,100,102,104,106,108,110,112,114,116,118,120,122,124,126,-1,-1,-1,-1,-1,-1,-1,-1,-1,-1,-1,-1,-1,-1,-1,-1,-1,-1,-1,-1,-1,-1,-1,-1,-1,-1,-1,-1,-1,-1,-1,-1,-1,-1,-1,-1,-1,-1,-1,-1,-1,-1,-1,-1,-1,-1,-1,-1,-1,-1,-1,-1,-1,-1,-1,-1,-1,-1,-1,-1,-1,-1,-1,-1],"split_conditions":[6.8E0,-3.8E0,1.74E1,-1.07E1,1.5E0,1.18E1,2.59E1,-1.76E1,-8.6E0,-2.5E0,5.5E0,1.04E1,1.68E1,2.01E1,-2.5881904E-1,5E-1,-1.28E1,5E-1,-4E0,4E-1,1E0,1E-1,3.7E0,6.1E0,9E0,1.19E1,1.32E1,1.55E1,-2.5881904E-1,3.1E1,5E-1,-2.21E1,-2.21E1,5E-1,-9.1E0,-3.4E0,-1.39E1,5E-1,-2.5881904E-1,-3.6E0,-2.5881904E-1,5E-1,3E0,-2.8E0,6.123234E-17,5E-1,6.6E0,2.8E0,-2.5881904E-1,-2.5881904E-1,9.8E0,7.2E0,-2.5881904E-1,5E-1,-2.5881904E-1,1.19E1,-2.5881904E-1,2.3E1,1.58E1,2.85E1,3.39E1,3.12E1,1.66E1,-9.614998E-1,-8.070263E-1,-1.2169164E0,-1.0131501E0,-6.889936E-1,-8.427E-1,-6.6728705E-1,-5.006096E-1,-6.672935E-1,-5.125151E-1,-8.7243605E-1,-6.488338E-1,-3.62567E-1,-4.7944853E-1,6.027369E-2,-3.0716032E-1,-6.025309E-1,-4.3720713E-1,-2.4215424E-1,-3.782105E-1,-1.3433926E-1,-2.4155886E-1,-1.22625664E-1,-2.0098653E-2,-5.931913E-1,-4.0306053E-1,-2.0668714E-1,-3.2375863E-1,-3.8016535E-2,-1.602602E-1,3.0139014E-2,1.4925294E-1,-3.3304343E-1,-1.6450071E-1,1.2347068E-2,-9.111414E-2,1.730295E-1,7.082672E-2,1.8353474E-1,3.203998E-1,-1.2942238E-1,7.116997E-2,2.6982856E-1,1.6354248E-1,4.2080164E-1,2.866536E-1,7.2496223E-1,4.942293E-1,1.8502964E-2,2.2244899E-1,4.1834304E-1,3.0924517E-1,5.6507385E-1,6.899457E-1,4.4182315E-1,5.6052613E-1,7.9185957E-1,9.039239E-1,1.0149219E0,1.1536586E0,6.805759E-1,8.5973036E-1,4.8811314E-1,6.5208E-1],"split_indices":[28,28,28,28,28,28,7,6,6,6,7,7,7,7,18,18,6,18,6,7,6,7,6,7,28,7,6,7,18,7,18,6,6,18,6,7,6,18,18,7,18,18,6,7,19,18,6,7,18,18,6,7,18,18,18,7,18,7,6,7,7,7,6,0,0,0,0,0,0,0,0,0,0,0,0,0,0,0,0,0,0,0,0,0,0,0,0,0,0,0,0,0,0,0,0,0,0,0,0,0,0,0,0,0,0,0,0,0,0,0,0,0,0,0,0,0,0,0,0,0,0,0,0,0,0,0,0],"split_type":[0,0,0,0,0,0,0,0,0,0,0,0,0,0,0,0,0,0,0,0,0,0,0,0,0,0,0,0,0,0,0,0,0,0,0,0,0,0,0,0,0,0,0,0,0,0,0,0,0,0,0,0,0,0,0,0,0,0,0,0,0,0,0,0,0,0,0,0,0,0,0,0,0,0,0,0,0,0,0,0,0,0,0,0,0,0,0,0,0,0,0,0,0,0,0,0,0,0,0,0,0,0,0,0,0,0,0,0,0,0,0,0,0,0,0,0,0,0,0,0,0,0,0,0,0,0,0],"sum_hessian":[1.0407E5,5.4121E4,4.9949E4,2.3917E4,3.0204E4,2.8008E4,2.1941E4,8.838E3,1.5079E4,1.4834E4,1.537E4,1.4089E4,1.3919E4,7.489E3,1.4452E4,3.877E3,4.961E3,1.1417E4,3.662E3,1.1606E4,3.228E3,2.505E3,1.2865E4,2.134E3,1.1955E4,3.541E3,1.0378E4,1.995E3,5.494E3,6.963E3,7.489E3,1.591E3,2.286E3,3.248E3,1.713E3,7.206E3,4.211E3,3.009E3,6.53E2,2.257E3,9.349E3,2.477E3,7.51E2,3.42E2,2.163E3,1.0493E4,2.372E3,5.13E2,1.621E3,5.074E3,6.881E3,7.13E2,2.828E3,7.756E3,2.622E3,4.14E2,1.581E3,3.482E3,2.012E3,4.403E3,2.56E3,3.694E3,3.795E3,6.62E2,9.29E2,7.16E2,1.57E3,7.79E2,2.469E3,1.355E3,3.58E2,1.947E3,5.259E3,1.02E3,3.191E3,6.81E2,2.328E3,2.4E1,6.29E2,4.69E2,1.788E3,3.742E3,5.607E3,5.34E2,1.943E3,5.1E2,2.41E2,8E1,2.62E2,1.707E3,4.56E2,6.552E3,3.941E3,1.798E3,5.74E2,1.25E2,3.88E2,1.257E3,3.64E2,1.403E3,3.671E3,6.066E3,8.15E2,1.32E2,5.81E2,2.169E3,6.59E2,5.252E3,2.504E3,1.71E2,2.451E3,1.35E2,2.79E2,1.205E3,3.76E2,1.486E3,1.996E3,1.432E3,5.8E2,2.262E3,2.141E3,1.776E3,7.84E2,2.291E3,1.403E3,1.572E3,2.223E3],"tree_param":{"num_deleted":"0","num_feature":"33","num_nodes":"127","size_leaf_vector":"1"}},{"base_weights":[-7.921597E-3,-7.909726E0,8.27228E0,-1.2908161E1,-4.074534E0,4.103234E0,1.2840888E1,-1.568614E1,-1.0220121E1,-5.8696E0,-1.4694488E0,2.3455727E0,6.7601433E0,1.0716105E1,1.6153606E1,-1.217903E1,-1.7157757E1,-1.1239975E1,-8.042927E0,-7.1917133E0,-4.1659193E0,-2.3530402E0,4.371126E-1,1.2318215E0,4.1860166E0,5.9831467E0,9.147062E0,1.2018375E1,8.486243E0,1.4265843E1,1.8525635E1,-1.6123346E1,-1.0700775E1,-2.091999E1,-1.5649476E1,-6.7145195E0,-1.153681E1,-8.8479805E0,-6.60525E0,-8.115714E0,-6.0424166E0,-2.6896484E0,-5.478422E0,-6.3284194E-1,-3.229836E0,-4.5229156E-2,2.428654E0,1.3807902E-1,2.2232409E0,5.155634E0,2.2878816E0,7.97912E0,4.923717E0,8.005249E0,1.0325526E1,1.4506103E1,1.0258375E1,9.65669E0,6.0851316E0,1.684425E1,1.3515986E1,1.9518198E1,1.6076284E1,-9.8250955E-1,-7.514181E-1,-6.0028297E-1,-4.7288615E-1,-1.200137E0,-9.8929435E-1,-8.3318704E-1,-7.119934E-1,-2.7805018E-1,-3.9708024E-1,-6.290043E-1,-5.278439E-1,-2.9612717E-1,-4.549388E-1,-3.611849E-1,-2.1994708E-1,-3.2532346E-1,-4.773793E-1,-2.2696292E-1,-3.369897E-1,-2.1608177E-1,-7.006541E-2,-4.255174E-1,-2.4087122E-1,8.883181E-2,-6.1087977E-2,-2.2005127E-1,-1.07125856E-1,1.2173631E-1,-1.925708E-2,1.0315084E-1,2.6187897E-1,7.276205E-2,-7.400096E-2,1.7833258E-1,6.659511E-2,1.9757245E-1,3.1774184E-1,-5.5984672E-2,1.5107447E-1,4.9920663E-1,3.7045294E-1,2.1080188E-1,3.297513E-1,6.07598E-1,3.7912825E-1,4.7297096E-1,5.70878E-1,8.070179E-1,6.5775454E-1,4.2578718E-1,5.464945E-1,3.9301443E-1,5.313911E-1,3.5563197E-2,3.435758E-1,8.076547E-1,9.370661E-1,6.2476486E-1,7.578563E-1,9.2757493E-1,1.062269E0,8.3943206E-1,6.5593845E-1],"categories":[],"categories_nodes":[],"categories_segments":[],"categories_sizes":[],"default_left":[0,0,0,0,0,0,0,0,0,0,0,0,0,0,0,0,0,0,0,0,0,0,0,0,0,0,0,0,0,0,0,0,0,0,0,0,0,0,0,0,0,0,0,0,0,0,0,0,0,0,0,0,0,0,0,0,0,0,0,0,0,0,0,0,0,0,0,0,0,0,0,0,0,0,0,0,0,0,0,0,0,0,0,0,0,0,0,0,0,0,0,0,0,0,0,0,0,0,0,0,0,0,0,0,0,0,0,0,0,0,0,0,0,0,0,0,0,0,0,0,0,0,0,0,0,0,0],"id":4,"left_children":[1,3,5,7,9,11,13,15,17,19,21,23,25,27,29,31,33,35,37,39,41,43,45,47,49,51,53,55,57,59,61,63,65,67,69,71,73,75,77,79,81,83,85,87,89,91,93,95,97,99,101,103,105,107,109,111,113,115,117,119,121,123,125,-1,-1,-1,-1,-1,-1,-1,-1,-1,-1,-1,-1,-1,-1,-1,-1,-1,-1,-1,-1,-1,-1,-1,-1,-1,-1,-1,-1,-1,-1,-1,-1,-1,-1,-1,-1,-1,-1,-1,-1,-1,-1,-1,-1,-1,-1,-1,-1,-1,-1,-1,-1,-1,-1,-1,-1,-1,-1,-1,-1,-1,-1,-1,-1],"loss_changes":[6.8243925E6,1.023067E6,9.700355E5,1.72865E5,1.4122031E5,1.2435409E5,1.7087725E5,5.85915E4,2.6063875E4,4.0244E4,2.075893E4,3.2853086E4,1.9609906E4,4.2898625E4,4.2248E4,1.9482781E4,4.519925E4,1.06945625E4,4.2945625E3,1.06405625E4,1.5127672E4,1.2697527E4,3.749346E3,1.0830254E4,1.1110125E4,1.6881688E4,3.4185625E3,4.077175E4,1.52943125E4,1.000225E4,9.906875E3,3.2459844E3,3.8685312E3,7.5418125E3,7.956375E3,6.5790625E2,7.5593125E3,1.7128281E3,1.8157422E3,1.2788625E4,4.6761094E3,7.731342E3,8.247945E3,4.0377612E3,7.0926406E3,2.650385E3,7.7077783E2,1.0125816E4,6.2686074E3,5.7496953E3,5.1155215E3,3.0955156E3,6.1579844E3,2.232E3,1.0997969E3,8.3321875E3,6.316125E3,6.3206562E3,7.5721953E3,1.2549062E3,6.6851875E3,4.593125E3,2.3458438E3,0E0,0E0,0E0,0E0,0E0,0E0,0E0,0E0,0E0,0E0,0E0,0E0,0E0,0E0,0E0,0E0,0E0,0E0,0E0,0E0,0E0,0E0,0E0,0E0,0E0,0E0,0E0,0E0,0E0,0E0,0E0,0E0,0E0,0E0,0E0,0E0,0E0,0E0,0E0,0E0,0E0,0E0,0E0,0E0,0E0,0E0,0E0,0E0,0E0,0E0,0E0,0E0,0E0,0E0,0E0,0E0,0E0,0E0,0E0,0E0,0E0,0E0,0E0,0E0],"parents":[2147483647,0,0,1,1,2,2,3,3,4,4,5,5,6,6,7,7,8,8,9,9,10,10,11,11,12,12,13,13,14,14,15,15,16,16,17,17,18,18,19,19,20,20,21,21,22,22,23,23,24,24,25,25,26,26,27,27,28,28,29,29,30,30,31,31,32,32,33,33,34,34,35,35,36,36,37,37,38,38,39,39,40,40,41,41,42,42,43,43,44,44,45,45,46,46,47,47,48,48,49,49,50,50,51,51,52,52,53,53,54,54,55,55,56,56,57,57,58,58,59,59,60,60,61,61,62,62],"right_children":[2,4,6,8,10,12,14,16,18,20,22,24,26,28,30,32,34,36,38,40,42,44,46,48,50,52,54,56,58,60,62,64,66,68,70,72,74,76,78,80,82,84,86,88,90,92,94,96,98,100,102,104,106,108,110,112,114,116,118,120,122,124,126,-1,-1,-1,-1,-1,-1,-1,-1,-1,-1,-1,-1,-1,-1,-1,-1,-1,-1,-1,-1,-1,-1,-1,-1,-1,-1,-1,-1,-1,-1,-1,-1,-1,-1,-1,-1,-1,-1,-1,-1,-1,-1,-1,-1,-1,-1,-1,-1,-1,-1,-1,-1,-1,-1,-1,-1,-1,-1,-1,-1,-1,-1,-1,-1],"split_conditions":[6.5E0,-4.1E0,1.65E1,-8.5E0,2.8E0,1.28E1,2.33E1,-5E-1,-3E0,2E-1,7.6E0,1.09E1,1.86E1,7.577E2,2.59E1,-1.72E1,-1.45E1,-7.0710677E-1,-6.9E0,-1.8E0,-7.0710677E-1,6.123234E-17,5.4E0,7.6E0,-2.5881904E-1,6.123234E-17,1.17E1,-7.0710677E-1,5.2E1,6.123234E-17,3.1E1,-2.21E1,-1.29E1,-1.89E1,-1.44E1,4.4E1,-5.9E0,6.123234E-17,1E0,-7.0710677E-1,6.123234E-17,-3.2E0,-1.4E0,-7.0710677E-1,-1.2E0,6.123234E-17,1.38E1,-7.0710677E-1,6.123234E-17,8.6E0,8E0,-7.0710677E-1,1.01E1,6.123234E-17,2.14E1,7.529E2,1.81E1,1.44E1,4.7E0,2.65E1,2.72E1,3.04E1,5.1E1,-9.8250955E-1,-7.514181E-1,-6.0028297E-1,-4.7288615E-1,-1.200137E0,-9.8929435E-1,-8.3318704E-1,-7.119934E-1,-2.7805018E-1,-3.9708024E-1,-6.290043E-1,-5.278439E-1,-2.9612717E-1,-4.549388E-1,-3.611849E-1,-2.1994708E-1,-3.2532346E-1,-4.773793E-1,-2.2696292E-1,-3.369897E-1,-2.1608177E-1,-7.006541E-2,-4.255174E-1,-2.4087122E-1,8.883181E-2,-6.1087977E-2,-2.2005127E-1,-1.07125856E-1,1.2173631E-1,-1.925708E-2,1.0315084E-1,2.6187897E-1,7.276205E-2,-7.400096E-2,1.7833258E-1,6.659511E-2,1.9757245E-1,3.1774184E-1,-5.5984672E-2,1.5107447E-1,4.9920663E-1,3.7045294E-1,2.1080188E-1,3.297513E-1,6.07598E-1,3.7912825E-1,4.7297096E-1,5.70878E-1,8.070179E-1,6.5775454E-1,4.2578718E-1,5.464945E-1,3.9301443E-1,5.313911E-1,3.5563197E-2,3.435758E-1,8.076547E-1,9.370661E-1,6.2476486E-1,7.578563E-1,9.2757493E-1,1.062269E0,8.3943206E-1,6.5593845E-1],"split_indices":[28,28,28,24,24,24,24,19,24,28,24,28,24,1,28,24,24,19,6,24,19,19,6,24,19,19,6,19,3,19,3,24,24,24,6,3,24,19,24,19,19,24,24,19,6,19,24,19,19,24,24,19,6,19,24,1,24,24,9,24,24,28,3,0,0,0,0,0,0,0,0,0,0,0,0,0,0,0,0,0,0,0,0,0,0,0,0,0,0,0,0,0,0,0,0,0,0,0,0,0,0,0,0,0,0,0,0,0,0,0,0,0,0,0,0,0,0,0,0,0,0,0,0,0,0,0,0],"split_type":[0,0,0,0,0,0,0,0,0,0,0,0,0,0,0,0,0,0,0,0,0,0,0,0,0,0,0,0,0,0,0,0,0,0,0,0,0,0,0,0,0,0,0,0,0,0,0,0,0,0,0,0,0,0,0,0,0,0,0,0,0,0,0,0,0,0,0,0,0,0,0,0,0,0,0,0,0,0,0,0,0,0,0,0,0,0,0,0,0,0,0,0,0,0,0,0,0,0,0,0,0,0,0,0,0,0,0,0,0,0,0,0,0,0,0,0,0,0,0,0,0,0,0,0,0,0,0],"sum_hessian":[1.04301E5,5.337E4,5.0931E4,2.317E4,3.02E4,2.6631E4,2.43E4,1.1392E4,1.1778E4,1.7879E4,1.2321E4,1.6029E4,1.0602E4,1.4807E4,9.493E3,3.37E3,8.022E3,8.018E3,3.76E3,1.0065E4,7.814E3,8.419E3,3.902E3,9.987E3,6.042E3,8.001E3,2.601E3,9.345E3,5.462E3,5.29E3,4.203E3,9.16E2,2.454E3,2.292E3,5.73E3,4.95E2,7.523E3,2.407E3,1.353E3,5.576E3,4.489E3,3.679E3,4.135E3,2.843E3,5.576E3,3.142E3,7.6E2,4.749E3,5.238E3,3.998E3,2.044E3,2.772E3,5.229E3,1.325E3,1.276E3,3.869E3,5.476E3,3.67E3,1.792E3,1.187E3,4.103E3,2.986E3,1.217E3,2.13E2,7.03E2,1.193E3,1.261E3,6.11E2,1.681E3,3.326E3,2.404E3,2.58E2,2.37E2,3.638E3,3.885E3,1.92E2,2.215E3,1.055E3,2.98E2,2.628E3,2.948E3,1.425E3,3.064E3,1.622E3,2.057E3,7.38E2,3.397E3,5.58E2,2.285E3,2.683E3,2.893E3,3.78E2,2.764E3,6.74E2,8.6E1,2.618E3,2.131E3,2.088E3,3.15E3,1.997E3,2.001E3,3.62E2,1.682E3,6.1E2,2.162E3,3.676E3,1.553E3,1.2E2,1.205E3,7.17E2,5.59E2,1.746E3,2.123E3,1.527E3,3.949E3,1.291E3,2.379E3,2.29E2,1.563E3,8.77E2,3.1E2,2.535E3,1.568E3,1.922E3,1.064E3,9.77E2,2.4E2],"tree_param":{"num_deleted":"0","num_feature":"33","num_nodes":"127","size_leaf_vector":"1"}},{"base_weights":[5.4126265E-3,-7.3839393E0,7.981593E0,-1.2035355E1,-3.56959E0,4.3594837E0,1.2593236E1,-1.4944699E1,-9.679585E0,-5.1786966E0,-9.5891505E-1,2.592093E0,7.0701113E0,1.0286901E1,1.5133314E1,-1.1483837E1,-1.6532711E1,-1.0791109E1,-7.6468E0,-6.3677406E0,-3.4633968E0,-1.7168732E0,8.425374E-1,-1.9787237E-1,3.404116E0,5.606412E0,8.270765E0,7.1215754E0,1.1435799E1,1.31700325E1,1.7119701E1,-1.4272438E1,-9.600589E0,-1.9649849E1,-1.4938335E1,-6.540745E0,-1.1158643E1,-8.310445E0,-6.281475E0,-8.964854E0,-5.9602685E0,-6.274565E0,-2.8418796E0,-1.5510325E-2,-2.5351672E0,3.1928694E0,4.5201942E-1,-2.947709E0,6.564039E-1,4.5659046E0,1.4463252E0,7.6797667E0,5.125541E0,7.5733495E0,9.899403E0,4.107689E0,8.107537E0,1.34838295E1,9.478179E0,1.5415638E1,1.2487336E1,1.5263224E1,1.8428232E1,-8.234569E-1,-6.367916E-1,-5.7394034E-1,-4.3261978E-1,-1.1126099E0,-9.192244E-1,-7.9686296E-1,-7.0311314E-1,-3.9153036E-1,-2.5534287E-1,-6.0756296E-1,-5.0732344E-1,-3.787642E-1,-4.606919E-1,-2.1842575E-1,-3.4110975E-1,-5.829504E-1,-4.1661602E-1,-2.553763E-1,-3.4056887E-1,-4.4379544E-1,-2.7286637E-1,-6.4945266E-2,-2.1080053E-1,1.171019E-1,-2.756547E-2,-1.77856E-1,-8.7075055E-2,1.2255724E-1,2.902207E-1,-3.7744243E-3,1.0378724E-1,-2.7670255E-1,-1.0662072E-1,5.8811005E-2,-4.3655224E-2,1.6061912E-1,2.8614125E-1,-3.0988881E-2,1.07276954E-1,4.216487E-1,2.6062587E-1,2.238146E-1,3.4363583E-1,5.1636E-1,3.5829705E-1,6.489336E-1,4.7902283E-1,-2.89655E-3,2.4711092E-1,4.3565312E-1,3.2189107E-1,6.0462797E-1,7.799293E-1,3.8879493E-1,5.096293E-1,7.448275E-1,8.8672364E-1,5.728203E-1,6.984498E-1,7.880742E-1,6.284976E-1,9.812479E-1,8.313443E-1],"categories":[],"categories_nodes":[],"categories_segments":[],"categories_sizes":[],"default_left":[0,0,0,0,0,0,0,0,0,0,0,0,0,0,0,0,0,0,0,0,0,0,0,0,0,0,0,0,0,0,0,0,0,0,0,0,0,0,0,0,0,0,0,0,0,0,0,0,0,0,0,0,0,0,0,0,0,0,0,0,0,0,0,0,0,0,0,0,0,0,0,0,0,0,0,0,0,0,0,0,0,0,0,0,0,0,0,0,0,0,0,0,0,0,0,0,0,0,0,0,0,0,0,0,0,0,0,0,0,0,0,0,0,0,0,0,0,0,0,0,0,0,0,0,0,0,0],"id":5,"left_children":[1,3,5,7,9,11,13,15,17,19,21,23,25,27,29,31,33,35,37,39,41,43,45,47,49,51,53,55,57,59,61,63,65,67,69,71,73,75,77,79,81,83,85,87,89,91,93,95,97,99,101,103,105,107,109,111,113,115,117,119,121,123,125,-1,-1,-1,-1,-1,-1,-1,-1,-1,-1,-1,-1,-1,-1,-1,-1,-1,-1,-1,-1,-1,-1,-1,-1,-1,-1,-1,-1,-1,-1,-1,-1,-1,-1,-1,-1,-1,-1,-1,-1,-1,-1,-1,-1,-1,-1,-1,-1,-1,-1,-1,-1,-1,-1,-1,-1,-1,-1,-1,-1,-1,-1,-1,-1],"loss_changes":[6.139066E6,9.59256E5,8.3665925E5,1.668195E5,1.2479816E5,1.3439538E5,1.2893125E5,5.97045E4,3.0339125E4,3.7465188E4,1.5471715E4,3.8480453E4,1.9413312E4,4.1928875E4,4.066025E4,1.7881281E4,3.6821625E4,1.35209375E4,4.2635E3,1.1432844E4,1.3133258E4,1.1102879E4,3.078851E3,8.999065E3,2.991725E4,4.9387344E3,6.8320625E3,9.1161875E3,3.384675E4,7.8975E3,1.2370375E4,4.4517812E3,3.5533594E3,7.90225E3,4.103375E3,1.2454238E3,7.9223125E3,2.0567812E3,1.5858906E3,2.4079453E3,6.7765938E3,2.8470586E3,1.3067977E4,3.2741702E3,4.3615234E3,9.1168066E2,2.4661008E3,1.9028359E3,2.3249963E3,1.2909828E4,7.081549E3,1.6991719E3,4.570164E3,4.7076875E3,1.663125E3,2.6457734E3,2.2885469E3,1.1989125E4,5.193875E3,1.2115312E3,6.029375E3,2.6991562E3,6.248625E3,0E0,0E0,0E0,0E0,0E0,0E0,0E0,0E0,0E0,0E0,0E0,0E0,0E0,0E0,0E0,0E0,0E0,0E0,0E0,0E0,0E0,0E0,0E0,0E0,0E0,0E0,0E0,0E0,0E0,0E0,0E0,0E0,0E0,0E0,0E0,0E0,0E0,0E0,0E0,0E0,0E0,0E0,0E0,0E0,0E0,0E0,0E0,0E0,0E0,0E0,0E0,0E0,0E0,0E0,0E0,0E0,0E0,0E0,0E0,0E0,0E0,0E0,0E0,0E0],"parents":[2147483647,0,0,1,1,2,2,3,3,4,4,5,5,6,6,7,7,8,8,9,9,10,10,11,11,12,12,13,13,14,14,15,15,16,16,17,17,18,18,19,19,20,20,21,21,22,22,23,23,24,24,25,25,26,26,27,27,28,28,29,29,30,30,31,31,32,32,33,33,34,34,35,35,36,36,37,37,38,38,39,39,40,40,41,41,42,42,43,43,44,44,45,45,46,46,47,47,48,48,49,49,50,50,51,51,52,52,53,53,54,54,55,55,56,56,57,57,58,58,59,59,60,60,61,61,62,62],"right_children":[2,4,6,8,10,12,14,16,18,20,22,24,26,28,30,32,34,36,38,40,42,44,46,48,50,52,54,56,58,60,62,64,66,68,70,72,74,76,78,80,82,84,86,88,90,92,94,96,98,100,102,104,106,108,110,112,114,116,118,120,122,124,126,-1,-1,-1,-1,-1,-1,-1,-1,-1,-1,-1,-1,-1,-1,-1,-1,-1,-1,-1,-1,-1,-1,-1,-1,-1,-1,-1,-1,-1,-1,-1,-1,-1,-1,-1,-1,-1,-1,-1,-1,-1,-1,-1,-1,-1,-1,-1,-1,-1,-1,-1,-1,-1,-1,-1,-1,-1,-1,-1,-1,-1,-1,-1,-1],"split_conditions":[6.8E0,-3.6E0,1.74E1,-8.9E0,3.6E0,1.35E1,2.23E1,-7.0710677E-1,-3.3E0,1E0,8.3E0,1.18E1,1.38E1,2.17E1,2.5E1,-1.54E1,-1.41E1,-7.0710677E-1,-1E-1,-5E-1,2.9E0,6.123234E-17,6.123234E-17,7.3E0,6.123234E-17,6.123234E-17,2E1,1.73E1,-7.0710677E-1,6.123234E-17,3.04E1,-1.89E1,-2.8E0,-1.8E1,-1.12E1,9E-1,-6.1E0,2E1,5E-1,-4.4E0,6.123234E-17,-5E-1,-7.0710677E-1,-7.0710677E-1,4.5375E0,1.1E1,1.2E1,3.6E0,-2.5881904E-1,1.13E1,9.1E0,5.4E1,1.79E1,-7.0710677E-1,6.123234E-17,7.2E0,-2.5881904E-1,2.81E1,1.81E1,2.65E1,2.65E1,4.7E1,6.123234E-17,-8.234569E-1,-6.367916E-1,-5.7394034E-1,-4.3261978E-1,-1.1126099E0,-9.192244E-1,-7.9686296E-1,-7.0311314E-1,-3.9153036E-1,-2.5534287E-1,-6.0756296E-1,-5.0732344E-1,-3.787642E-1,-4.606919E-1,-2.1842575E-1,-3.4110975E-1,-5.829504E-1,-4.1661602E-1,-2.553763E-1,-3.4056887E-1,-4.4379544E-1,-2.7286637E-1,-6.4945266E-2,-2.1080053E-1,1.171019E-1,-2.756547E-2,-1.77856E-1,-8.7075055E-2,1.2255724E-1,2.902207E-1,-3.7744243E-3,1.0378724E-1,-2.7670255E-1,-1.0662072E-1,5.8811005E-2,-4.3655224E-2,1.6061912E-1,2.8614125E-1,-3.0988881E-2,1.07276954E-1,4.216487E-1,2.6062587E-1,2.238146E-1,3.4363583E-1,5.1636E-1,3.5829705E-1,6.489336E-1,4.7902283E-1,-2.89655E-3,2.4711092E-1,4.3565312E-1,3.2189107E-1,6.0462797E-1,7.799293E-1,3.8879493E-1,5.096293E-1,7.448275E-1,8.8672364E-1,5.728203E-1,6.984498E-1,7.880742E-1,6.284976E-1,9.812479E-1,8.313443E-1],"split_indices":[28,28,28,24,24,24,24,19,24,28,24,7,28,7,28,24,24,19,24,7,7,19,19,7,19,19,24,7,19,19,7,24,7,24,24,7,24,15,19,7,19,7,19,19,31,24,24,7,18,28,24,3,24,19,19,24,18,7,24,24,24,3,19,0,0,0,0,0,0,0,0,0,0,0,0,0,0,0,0,0,0,0,0,0,0,0,0,0,0,0,0,0,0,0,0,0,0,0,0,0,0,0,0,0,0,0,0,0,0,0,0,0,0,0,0,0,0,0,0,0,0,0,0,0,0,0,0],"split_type":[0,0,0,0,0,0,0,0,0,0,0,0,0,0,0,0,0,0,0,0,0,0,0,0,0,0,0,0,0,0,0,0,0,0,0,0,0,0,0,0,0,0,0,0,0,0,0,0,0,0,0,0,0,0,0,0,0,0,0,0,0,0,0,0,0,0,0,0,0,0,0,0,0,0,0,0,0,0,0,0,0,0,0,0,0,0,0,0,0,0,0,0,0,0,0,0,0,0,0,0,0,0,0,0,0,0,0,0,0,0,0,0,0,0,0,0,0,0,0,0,0,0,0,0,0,0,0],"sum_hessian":[1.04158E5,5.4068E4,5.009E4,2.436E4,2.9708E4,2.8056E4,2.2034E4,1.0897E4,1.3463E4,1.8379E4,1.1329E4,1.6984E4,1.1072E4,1.1551E4,1.0483E4,3.43E3,7.467E3,8.701E3,4.762E3,1.0853E4,7.526E3,7.974E3,3.355E3,3.829E3,1.3155E4,4.992E3,6.08E3,3.078E3,8.473E3,5.276E3,5.207E3,1.38E3,2.05E3,2.523E3,4.944E3,6.94E2,8.007E3,3.201E3,1.561E3,1.469E3,9.384E3,1.361E3,6.165E3,2.59E3,5.384E3,4.77E2,2.878E3,9.07E2,2.922E3,8.255E3,4.9E3,9.37E2,4.055E3,4.261E3,1.819E3,7.6E2,2.318E3,4.138E3,4.335E3,1.225E3,4.051E3,2.158E3,3.049E3,5.64E2,8.16E2,6.84E2,1.366E3,8.2E2,1.703E3,2.302E3,2.642E3,3.63E2,3.31E2,4.037E3,3.97E3,1.77E3,1.431E3,3.46E2,1.215E3,2.76E2,1.193E3,4.691E3,4.693E3,3.23E2,1.038E3,2.905E3,3.26E3,4.79E2,2.111E3,2.352E3,3.032E3,3.73E2,1.04E2,2.173E3,7.05E2,2.16E2,6.91E2,2.181E3,7.41E2,3.806E3,4.449E3,1.239E3,3.661E3,7.16E2,2.21E2,2.959E3,1.096E3,5.46E2,3.715E3,1.67E2,1.652E3,1.27E2,6.33E2,1.698E3,6.2E2,2.5E3,1.638E3,1.285E3,3.05E3,1.007E3,2.18E2,2.394E3,1.657E3,1.817E3,3.41E2,1.826E3,1.223E3],"tree_param":{"num_deleted":"0","num_feature":"33","num_nodes":"127","size_leaf_vector":"1"}},{"base_weights":[1.3026097E-3,-7.01322E0,7.5856533E0,-1.1728467E1,-3.6363983E0,4.050464E0,1.189769E1,-1.4618817E1,-9.657392E0,-5.572861E0,-1.4909291E0,2.3623092E0,6.483589E0,9.836085E0,1.4500867E1,-1.13808565E1,-1.6159428E1,-1.1004931E1,-8.051656E0,-6.7124615E0,-3.9345162E0,-2.7160792E0,-1.0559766E-1,-7.17963E-1,3.0381818E0,4.9981833E0,7.575932E0,6.776784E0,1.0918982E1,1.2916721E1,1.6708479E1,-1.5663561E1,-1.0359107E1,-1.9782804E1,-1.5027943E1,-6.97846E0,-1.140502E1,-8.61658E0,-6.258522E0,-8.962555E0,-6.3187943E0,-2.6372008E0,-5.3768597E0,-1.092802E0,-3.7342713E0,-7.0566833E-1,1.3986762E0,-3.5880265E0,1.2481318E-2,4.06553E0,1.1872363E0,6.986024E0,4.533029E0,6.8002005E0,8.934197E0,3.5024269E0,7.562297E0,1.2942676E1,9.136578E0,1.5085096E1,1.2170549E1,1.4998054E1,1.8235018E1,-8.7947935E-1,-7.199279E-1,-5.975246E-1,-4.686617E-1,-1.2136889E0,-9.604425E-1,-7.9276866E-1,-6.781904E-1,-4.4259486E-1,-3.117495E-1,-5.9672916E-1,-4.9741265E-1,-4.6266565E-1,-3.7856597E-1,-3.2027295E-1,1.1659702E-1,-5.3960425E-1,-4.1053754E-1,-2.4606477E-1,-3.476292E-1,-2.4953914E-1,-6.947353E-2,-3.8658473E-1,-2.329971E-1,5.6637406E-2,-9.031748E-2,-2.3358555E-1,-1.3170663E-1,2.9417587E-2,-7.7878706E-2,2.0537801E-2,1.15107276E-1,-3.2162905E-1,-1.4849477E-1,-3.9945308E-2,3.431463E-2,1.424703E-1,2.588579E-1,-2.6302267E-2,9.7703524E-2,3.8783333E-1,2.3795724E-1,2.0194052E-1,3.389969E-1,3.9347014E-1,2.819079E-1,5.7863265E-1,4.3021098E-1,1.9126888E-2,2.2419135E-1,4.1355824E-1,3.1332943E-1,5.677684E-1,7.307338E-1,3.72266E-1,4.8919612E-1,6.7191106E-1,7.884928E-1,5.611403E-1,6.8885344E-1,7.787788E-1,6.118858E-1,9.5974153E-1,8.3006734E-1],"categories":[],"categories_nodes":[],"categories_segments":[],"categories_sizes":[],"default_left":[0,0,0,0,0,0,0,0,0,0,0,0,0,0,0,0,0,0,0,0,0,0,0,0,0,0,0,0,0,0,0,0,0,0,0,0,0,0,0,0,0,0,0,0,0,0,0,0,0,0,0,0,0,0,0,0,0,0,0,0,0,0,0,0,0,0,0,0,0,0,0,0,0,0,0,0,0,0,0,0,0,0,0,0,0,0,0,0,0,0,0,0,0,0,0,0,0,0,0,0,0,0,0,0,0,0,0,0,0,0,0,0,0,0,0,0,0,0,0,0,0,0,0,0,0,0,0],"id":6,"left_children":[1,3,5,7,9,11,13,15,17,19,21,23,25,27,29,31,33,35,37,39,41,43,45,47,49,51,53,55,57,59,61,63,65,67,69,71,73,75,77,79,81,83,85,87,89,91,93,95,97,99,101,103,105,107,109,111,113,115,117,119,121,123,125,-1,-1,-1,-1,-1,-1,-1,-1,-1,-1,-1,-1,-1,-1,-1,-1,-1,-1,-1,-1,-1,-1,-1,-1,-1,-1,-1,-1,-1,-1,-1,-1,-1,-1,-1,-1,-1,-1,-1,-1,-1,-1,-1,-1,-1,-1,-1,-1,-1,-1,-1,-1,-1,-1,-1,-1,-1,-1,-1,-1,-1,-1,-1,-1],"loss_changes":[5.541907E6,8.6165375E5,7.629375E5,1.3504375E5,1.3101181E5,1.1296125E5,1.2086625E5,4.6832E4,2.838475E4,3.0920062E4,2.5393805E4,3.3811773E4,1.8242031E4,4.162225E4,3.46265E4,1.3149031E4,2.5875875E4,1.1441875E4,6.0320312E3,8.601031E3,1.2713547E4,1.3119211E4,6.340443E3,6.127885E3,2.532021E4,4.3853906E3,6.7774375E3,8.443266E3,3.3405625E4,9.20875E3,1.058575E4,1.169625E3,3.7459375E3,3.441375E3,5.6835E3,8.487637E2,4.8988125E3,2.968875E3,1.8363672E3,1.9099141E3,7.33675E3,1.0515031E4,5.400039E3,4.8646113E3,5.0194766E3,5.535982E3,1.7868433E3,1.0235737E3,1.2749572E3,1.1562734E4,6.2481597E3,1.5144648E3,4.2745547E3,5.093203E3,1.9516406E3,1.954813E3,2.38675E3,1.1378875E4,5.3410625E3,1.459375E3,6.4289375E3,2.9450938E3,3.1199375E3,0E0,0E0,0E0,0E0,0E0,0E0,0E0,0E0,0E0,0E0,0E0,0E0,0E0,0E0,0E0,0E0,0E0,0E0,0E0,0E0,0E0,0E0,0E0,0E0,0E0,0E0,0E0,0E0,0E0,0E0,0E0,0E0,0E0,0E0,0E0,0E0,0E0,0E0,0E0,0E0,0E0,0E0,0E0,0E0,0E0,0E0,0E0,0E0,0E0,0E0,0E0,0E0,0E0,0E0,0E0,0E0,0E0,0E0,0E0,0E0,0E0,0E0,0E0,0E0],"parents":[2147483647,0,0,1,1,2,2,3,3,4,4,5,5,6,6,7,7,8,8,9,9,10,10,11,11,12,12,13,13,14,14,15,15,16,16,17,17,18,18,19,19,20,20,21,21,22,22,23,23,24,24,25,25,26,26,27,27,28,28,29,29,30,30,31,31,32,32,33,33,34,34,35,35,36,36,37,37,38,38,39,39,40,40,41,41,42,42,43,43,44,44,45,45,46,46,47,47,48,48,49,49,50,50,51,51,52,52,53,53,54,54,55,55,56,56,57,57,58,58,59,59,60,60,61,61,62,62],"right_children":[2,4,6,8,10,12,14,16,18,20,22,24,26,28,30,32,34,36,38,40,42,44,46,48,50,52,54,56,58,60,62,64,66,68,70,72,74,76,78,80,82,84,86,88,90,92,94,96,98,100,102,104,106,108,110,112,114,116,118,120,122,124,126,-1,-1,-1,-1,-1,-1,-1,-1,-1,-1,-1,-1,-1,-1,-1,-1,-1,-1,-1,-1,-1,-1,-1,-1,-1,-1,-1,-1,-1,-1,-1,-1,-1,-1,-1,-1,-1,-1,-1,-1,-1,-1,-1,-1,-1,-1,-1,-1,-1,-1,-1,-1,-1,-1,-1,-1,-1,-1,-1,-1,-1,-1,-1,-1],"split_conditions":[6.8E0,-4.3E0,1.72E1,-9.7E0,2E0,1.31E1,2.28E1,-5E-1,-4.9E0,2E-1,5.9E0,1.08E1,1.33E1,2.17E1,2.62E1,-1.89E1,-1.59E1,-7.0710677E-1,-6.2E0,-1E0,-7.0710677E-1,6.123234E-17,9.7E0,6.1E0,6.123234E-17,6.123234E-17,1.89E1,1.66E1,-7.0710677E-1,6.123234E-17,3.14E1,-2.21E1,-1.49E1,-2.21E1,-1.51E1,-2.1E0,-1.01E1,-2E0,5.8E0,-3.9E0,3.7E1,4.5E0,-1.4E0,-7.0710677E-1,-1.4E0,5E-1,1.3E0,1.8E0,9.1E0,1.12E1,9.3E0,5.1E1,1.09E1,6.123234E-17,6.123234E-17,1.23E1,5.8E1,2.72E1,1.81E1,2.67E1,2.72E1,4.3E1,6.123234E-17,-8.7947935E-1,-7.199279E-1,-5.975246E-1,-4.686617E-1,-1.2136889E0,-9.604425E-1,-7.9276866E-1,-6.781904E-1,-4.4259486E-1,-3.117495E-1,-5.9672916E-1,-4.9741265E-1,-4.6266565E-1,-3.7856597E-1,-3.2027295E-1,1.1659702E-1,-5.3960425E-1,-4.1053754E-1,-2.4606477E-1,-3.476292E-1,-2.4953914E-1,-6.947353E-2,-3.8658473E-1,-2.329971E-1,5.6637406E-2,-9.031748E-2,-2.3358555E-1,-1.3170663E-1,2.9417587E-2,-7.7878706E-2,2.0537801E-2,1.15107276E-1,-3.2162905E-1,-1.4849477E-1,-3.9945308E-2,3.431463E-2,1.424703E-1,2.588579E-1,-2.6302267E-2,9.7703524E-2,3.8783333E-1,2.3795724E-1,2.0194052E-1,3.389969E-1,3.9347014E-1,2.819079E-1,5.7863265E-1,4.3021098E-1,1.9126888E-2,2.2419135E-1,4.1355824E-1,3.1332943E-1,5.677684E-1,7.307338E-1,3.72266E-1,4.8919612E-1,6.7191106E-1,7.884928E-1,5.611403E-1,6.8885344E-1,7.787788E-1,6.118858E-1,9.5974153E-1,8.3006734E-1],"split_indices":[28,28,28,24,24,24,24,19,24,28,24,7,28,7,28,24,24,19,6,7,19,19,24,7,19,19,24,7,19,19,7,24,24,24,6,7,6,24,24,7,3,7,24,19,6,19,6,7,7,28,24,3,6,19,19,7,3,7,24,7,24,3,19,0,0,0,0,0,0,0,0,0,0,0,0,0,0,0,0,0,0,0,0,0,0,0,0,0,0,0,0,0,0,0,0,0,0,0,0,0,0,0,0,0,0,0,0,0,0,0,0,0,0,0,0,0,0,0,0,0,0,0,0,0,0,0,0],"split_type":[0,0,0,0,0,0,0,0,0,0,0,0,0,0,0,0,0,0,0,0,0,0,0,0,0,0,0,0,0,0,0,0,0,0,0,0,0,0,0,0,0,0,0,0,0,0,0,0,0,0,0,0,0,0,0,0,0,0,0,0,0,0,0,0,0,0,0,0,0,0,0,0,0,0,0,0,0,0,0,0,0,0,0,0,0,0,0,0,0,0,0,0,0,0,0,0,0,0,0,0,0,0,0,0,0,0,0,0,0,0,0,0,0,0,0,0,0,0,0,0,0,0,0,0,0,0,0],"sum_hessian":[1.04168E5,5.4117E4,5.0051E4,2.2582E4,3.1535E4,2.7504E4,2.2547E4,9.424E3,1.3158E4,1.6574E4,1.4961E4,1.6239E4,1.1265E4,1.2585E4,9.962E3,3.041E3,6.383E3,7.151E3,6.007E3,9.773E3,6.801E3,7.939E3,7.022E3,2.922E3,1.3317E4,4.776E3,6.489E3,3.292E3,9.293E3,5.804E3,4.158E3,5.83E2,2.458E3,1.515E3,4.868E3,6.48E2,6.503E3,4.565E3,1.442E3,1.452E3,8.321E3,3.582E3,3.219E3,3.061E3,4.878E3,5.02E3,2.002E3,5.92E2,2.33E3,8.563E3,4.754E3,9.03E2,3.873E3,4.134E3,2.355E3,6.38E2,2.654E3,4.349E3,4.944E3,1.481E3,4.323E3,1.966E3,2.192E3,2.26E2,3.57E2,9.36E2,1.522E3,1.67E2,1.348E3,3.104E3,1.764E3,1.81E2,4.67E2,4.764E3,1.739E3,2.832E3,1.733E3,1.418E3,2.4E1,4.19E2,1.033E3,2.599E3,5.722E3,1.24E3,2.342E3,7.49E2,2.47E3,7.43E2,2.318E3,2.632E3,2.246E3,1.993E3,3.027E3,9.57E2,1.045E3,1.04E2,4.88E2,1.057E3,1.273E3,4.091E3,4.472E3,1.47E3,3.284E3,6.69E2,2.34E2,3.177E3,6.96E2,2.15E3,1.984E3,2.58E2,2.097E3,1.53E2,4.85E2,1.712E3,9.42E2,2.235E3,2.114E3,1.372E3,3.572E3,4.41E2,1.04E3,2.724E3,1.599E3,1.622E3,3.44E2,1.374E3,8.18E2],"tree_param":{"num_deleted":"0","num_feature":"33","num_nodes":"127","size_leaf_vector":"1"}},{"base_weights":[6.4782486E-3,-6.8428817E0,7.0163045E0,-1.1562888E1,-3.8976502E0,3.1900313E0,1.076112E1,-1.4076284E1,-9.487029E0,-5.7454877E0,-1.7645259E0,1.5355783E0,5.057508E0,8.8092985E0,1.3594202E1,-1.1053849E1,-1.537515E1,-1.0634128E1,-7.928323E0,-6.9854736E0,-4.1867113E0,-2.8611758E0,-7.466947E-2,2.8478906E0,4.892265E-1,4.2699246E0,6.942651E0,6.9173565E0,9.937081E0,1.1712906E1,1.5464098E1,-1.4407108E1,-9.828862E0,-1.8455976E1,-1.418971E1,-6.714043E0,-1.0925964E1,-8.458375E0,-5.983248E0,-5.50242E0,-7.9392443E0,-4.640239E0,-2.4273243E0,-2.2720802E0,-4.080398E0,-5.718003E-1,1.3298534E0,7.610405E-1,4.18837E0,-2.0631025E0,1.2387159E0,6.0209107E0,3.2174606E0,6.008929E0,8.015954E0,7.977694E0,4.39904E0,1.2698403E1,8.553588E0,1.399317E1,1.1120267E1,1.6288513E1,1.3176397E1,-8.448097E-1,-6.6658825E-1,-5.452342E-1,-4.3487358E-1,-1.0297242E0,-8.6746037E-1,-7.454623E-1,-6.365541E-1,-2.8289372E-1,-3.9345023E-1,-5.697574E-1,-4.740388E-1,-4.5007133E-1,-3.709049E-1,-3.0639383E-1,1.416864E-1,-3.2385284E-1,-1.6344123E-1,-5.28608E-1,-3.544296E-1,-2.5193256E-1,-1.6733342E-1,-1.45266E-1,-4.8749913E-2,-1.7543563E-1,-7.5942636E-2,-3.3440253E-1,-1.6826712E-1,4.587684E-2,-5.7005253E-2,2.1062044E-2,1.1201348E-1,-1.3334565E-2,1.20513774E-1,2.3853867E-1,1.0713158E-1,-1.9337125E-1,-6.006494E-2,4.1005604E-2,1.3266659E-1,3.819715E-1,2.7270183E-1,1.15633726E-1,2.076211E-1,4.6282497E-1,2.7538085E-1,5.4950136E-1,3.8340554E-1,4.3746668E-1,2.9892167E-1,8.546842E-2,2.600787E-1,6.6053456E-1,4.712103E-1,4.8640543E-1,3.8508952E-1,5.60816E-1,7.175867E-1,5.082123E-1,6.1696666E-1,7.6949555E-1,8.9860326E-1,6.811646E-1,4.9566656E-1],"categories":[],"categories_nodes":[],"categories_segments":[],"categories_sizes":[],"default_left":[0,0,0,0,0,0,0,0,0,0,0,0,0,0,0,0,0,0,0,0,0,0,0,0,0,0,0,0,0,0,0,0,0,0,0,0,0,0,0,0,0,0,0,0,0,0,0,0,0,0,0,0,0,0,0,0,0,0,0,0,0,0,0,0,0,0,0,0,0,0,0,0,0,0,0,0,0,0,0,0,0,0,0,0,0,0,0,0,0,0,0,0,0,0,0,0,0,0,0,0,0,0,0,0,0,0,0,0,0,0,0,0,0,0,0,0,0,0,0,0,0,0,0,0,0,0,0],"id":7,"left_children":[1,3,5,7,9,11,13,15,17,19,21,23,25,27,29,31,33,35,37,39,41,43,45,47,49,51,53,55,57,59,61,63,65,67,69,71,73,75,77,79,81,83,85,87,89,91,93,95,97,99,101,103,105,107,109,111,113,115,117,119,121,123,125,-1,-1,-1,-1,-1,-1,-1,-1,-1,-1,-1,-1,-1,-1,-1,-1,-1,-1,-1,-1,-1,-1,-1,-1,-1,-1,-1,-1,-1,-1,-1,-1,-1,-1,-1,-1,-1,-1,-1,-1,-1,-1,-1,-1,-1,-1,-1,-1,-1,-1,-1,-1,-1,-1,-1,-1,-1,-1,-1,-1,-1,-1,-1,-1],"loss_changes":[5.0010155E6,7.323285E5,7.375635E5,1.0547825E5,1.2786541E5,7.866408E4,1.437345E5,3.576625E4,1.9742688E4,3.3569688E4,2.7908688E4,1.8540123E4,1.7728906E4,3.2803125E4,3.7143E4,1.1175094E4,2.311175E4,7.23125E3,4.8002188E3,1.3648594E4,6.1359844E3,6.5504062E3,4.1398774E3,1.6753117E4,1.4376412E4,1.55324375E4,3.4824688E3,1.5337656E4,3.6756938E4,6.9971875E3,9.815125E3,1.7420625E3,2.3650625E3,3.8438125E3,4.6653125E3,4.9830273E2,3.9203125E3,2.020625E3,1.306582E3,8.233797E3,1.3114656E4,3.1392969E3,1.094706E3,5.732498E3,5.5228594E3,3.70742E3,1.2812402E3,3.9736548E3,4.3349766E3,2.6481353E3,3.4377031E3,2.8640625E3,4.451039E3,3.0227734E3,1.6081875E3,6.1956562E3,3.677918E3,5.274875E3,6.3600312E3,9.223281E2,4.7764375E3,5.631125E3,1.9269219E3,0E0,0E0,0E0,0E0,0E0,0E0,0E0,0E0,0E0,0E0,0E0,0E0,0E0,0E0,0E0,0E0,0E0,0E0,0E0,0E0,0E0,0E0,0E0,0E0,0E0,0E0,0E0,0E0,0E0,0E0,0E0,0E0,0E0,0E0,0E0,0E0,0E0,0E0,0E0,0E0,0E0,0E0,0E0,0E0,0E0,0E0,0E0,0E0,0E0,0E0,0E0,0E0,0E0,0E0,0E0,0E0,0E0,0E0,0E0,0E0,0E0,0E0,0E0,0E0],"parents":[2147483647,0,0,1,1,2,2,3,3,4,4,5,5,6,6,7,7,8,8,9,9,10,10,11,11,12,12,13,13,14,14,15,15,16,16,17,17,18,18,19,19,20,20,21,21,22,22,23,23,24,24,25,25,26,26,27,27,28,28,29,29,30,30,31,31,32,32,33,33,34,34,35,35,36,36,37,37,38,38,39,39,40,40,41,41,42,42,43,43,44,44,45,45,46,46,47,47,48,48,49,49,50,50,51,51,52,52,53,53,54,54,55,55,56,56,57,57,58,58,59,59,60,60,61,61,62,62],"right_children":[2,4,6,8,10,12,14,16,18,20,22,24,26,28,30,32,34,36,38,40,42,44,46,48,50,52,54,56,58,60,62,64,66,68,70,72,74,76,78,80,82,84,86,88,90,92,94,96,98,100,102,104,106,108,110,112,114,116,118,120,122,124,126,-1,-1,-1,-1,-1,-1,-1,-1,-1,-1,-1,-1,-1,-1,-1,-1,-1,-1,-1,-1,-1,-1,-1,-1,-1,-1,-1,-1,-1,-1,-1,-1,-1,-1,-1,-1,-1,-1,-1,-1,-1,-1,-1,-1,-1,-1,-1,-1,-1,-1,-1,-1,-1,-1,-1,-1,-1,-1,-1,-1,-1,-1,-1,-1],"split_conditions":[6.3E0,-5.2E0,1.58E1,-9.7E0,1.1E0,1.12E1,2.26E1,-5E-1,-5E0,-7E-1,5.3E0,-7.0710677E-1,1.69E1,1.65E1,2.47E1,-1.8E1,-1.54E1,-7.0710677E-1,-6.2E0,-7.0710677E-1,-8E-1,6.123234E-17,9.7E0,4.1E0,6.3E0,6.123234E-17,1.07E1,-2.5881904E-1,-7.0710677E-1,6.123234E-17,3.4E1,-2.21E1,-1.37E1,-1.89E1,-1.47E1,4.6E1,-1E1,-2E0,5.8E0,-5.9E0,-5E0,3.9E0,5.1E0,-1E0,1.1E0,6.123234E-17,1.4E0,5.6E0,6.5E1,3.6E0,7.4E0,-7.0710677E-1,6.7E0,6.123234E-17,-2.5881904E-1,5.5E1,1.22E1,5.6E1,2.5881904E-1,9E0,2.62E1,2.98E1,5.9E1,-8.448097E-1,-6.6658825E-1,-5.452342E-1,-4.3487358E-1,-1.0297242E0,-8.6746037E-1,-7.454623E-1,-6.365541E-1,-2.8289372E-1,-3.9345023E-1,-5.697574E-1,-4.740388E-1,-4.5007133E-1,-3.709049E-1,-3.0639383E-1,1.416864E-1,-3.2385284E-1,-1.6344123E-1,-5.28608E-1,-3.544296E-1,-2.5193256E-1,-1.6733342E-1,-1.45266E-1,-4.8749913E-2,-1.7543563E-1,-7.5942636E-2,-3.3440253E-1,-1.6826712E-1,4.587684E-2,-5.7005253E-2,2.1062044E-2,1.1201348E-1,-1.3334565E-2,1.20513774E-1,2.3853867E-1,1.0713158E-1,-1.9337125E-1,-6.006494E-2,4.1005604E-2,1.3266659E-1,3.819715E-1,2.7270183E-1,1.15633726E-1,2.076211E-1,4.6282497E-1,2.7538085E-1,5.4950136E-1,3.8340554E-1,4.3746668E-1,2.9892167E-1,8.546842E-2,2.600787E-1,6.6053456E-1,4.712103E-1,4.8640543E-1,3.8508952E-1,5.60816E-1,7.175867E-1,5.082123E-1,6.1696666E-1,7.6949555E-1,8.9860326E-1,6.811646E-1,4.9566656E-1],"split_indices":[28,28,28,24,28,24,24,19,24,24,24,19,24,24,28,24,24,19,6,19,6,19,24,24,24,19,6,19,19,19,3,24,24,24,6,3,6,24,24,24,24,24,24,24,24,19,6,27,3,24,6,19,6,19,18,3,24,3,19,15,24,28,3,0,0,0,0,0,0,0,0,0,0,0,0,0,0,0,0,0,0,0,0,0,0,0,0,0,0,0,0,0,0,0,0,0,0,0,0,0,0,0,0,0,0,0,0,0,0,0,0,0,0,0,0,0,0,0,0,0,0,0,0,0,0,0,0],"split_type":[0,0,0,0,0,0,0,0,0,0,0,0,0,0,0,0,0,0,0,0,0,0,0,0,0,0,0,0,0,0,0,0,0,0,0,0,0,0,0,0,0,0,0,0,0,0,0,0,0,0,0,0,0,0,0,0,0,0,0,0,0,0,0,0,0,0,0,0,0,0,0,0,0,0,0,0,0,0,0,0,0,0,0,0,0,0,0,0,0,0,0,0,0,0,0,0,0,0,0,0,0,0,0,0,0,0,0,0,0,0,0,0,0,0,0,0,0,0,0,0,0,0,0,0,0,0,0],"sum_hessian":[1.04158E5,5.2682E4,5.1476E4,2.0241E4,3.2441E4,2.5462E4,2.6014E4,9.153E3,1.1088E4,1.7382E4,1.5059E4,1.3502E4,1.196E4,1.5405E4,1.0609E4,2.754E3,6.399E3,6.384E3,4.704E3,9.679E3,7.703E3,9.132E3,5.927E3,5.989E3,7.513E3,8.438E3,3.522E3,5.756E3,9.649E3,5.292E3,5.317E3,7.34E2,2.02E3,1.774E3,4.625E3,4.44E2,5.94E3,3.694E3,1.01E3,3.791E3,5.888E3,6.123E3,1.58E3,6.159E3,2.973E3,4.378E3,1.549E3,2.343E3,3.646E3,1.705E3,5.808E3,3.166E3,5.272E3,1.887E3,1.635E3,4.049E3,1.707E3,3.218E3,6.431E3,1.087E3,4.205E3,3.904E3,1.413E3,2.17E2,5.17E2,1.031E3,9.89E2,5.99E2,1.175E3,3.091E3,1.534E3,2.35E2,2.09E2,4.479E3,1.461E3,2.422E3,1.272E3,9.94E2,1.6E1,2.638E3,1.153E3,1.435E3,4.453E3,4.679E3,1.444E3,1.188E3,3.92E2,2.33E3,3.829E3,6.38E2,2.335E3,1.209E3,3.169E3,7.76E2,7.73E2,1.444E3,8.99E2,2.837E3,8.09E2,5.5E2,1.155E3,4.483E3,1.325E3,8.18E2,2.348E3,2.681E3,2.591E3,2.5E2,1.637E3,1.68E2,1.467E3,2.919E3,1.13E3,3.93E2,1.314E3,2.78E3,4.38E2,2.699E3,3.732E3,1.28E2,9.59E2,2.362E3,1.843E3,2.552E3,1.352E3,1.24E3,1.73E2],"tree_param":{"num_deleted":"0","num_feature":"33","num_nodes":"127","size_leaf_vector":"1"}},{"base_weights":[1.53141245E-2,-6.181985E0,6.9878426E0,-1.0085452E1,-2.7421014E0,3.8658803E0,1.0804341E1,-1.2973946E1,-8.273953E0,-4.2776713E0,-8.769268E-1,2.3178928E0,5.848807E0,9.059613E0,1.3136019E1,-1.461672E1,-1.106026E1,-9.709115E0,-7.366587E0,-5.415559E0,-3.544941E0,-1.8728739E0,-2.9886714E-1,3.6988714E0,1.6635695E0,6.9949884E0,4.5224175E0,9.655028E0,6.301689E0,1.414521E1,9.251606E0,-1.2037447E1,-1.6236269E1,-8.602004E0,-1.1713973E1,-1.0249458E1,-8.190033E0,-5.7599E0,-7.871852E0,-4.3963966E0,-5.986049E0,-2.2621894E0,-3.919934E0,-1.6123871E0,-3.9389937E0,-5.4736834E-2,-2.1258435E0,4.9643736E0,3.1194139E0,8.848766E-1,2.4928117E0,6.383583E0,8.1778E0,5.252785E0,2.4827287E0,1.0425971E1,7.9040575E0,7.2572274E0,3.1025784E0,1.5402934E1,1.2314983E1,1.0460661E1,6.6021976E0,-6.7468804E-1,-5.303546E-1,-9.49E-1,-7.5736165E-1,-2.2176075E-1,-4.5056587E-1,-6.3694185E-1,-4.9267012E-1,-4.597536E-1,-6.0424656E-1,-2.730553E-1,-4.3642774E-1,-3.392218E-1,-2.0273605E-1,-5.031901E-1,-3.6137822E-1,-2.4316756E-1,-9.451058E-2,-4.3205705E-1,-2.6884574E-1,-1.425641E-1,1.2427125E-2,-3.42329E-1,-1.8029957E-1,-3.892821E-2,-1.05947785E-1,-1.6282663E-1,-2.77325E-1,3.5910346E-2,-3.4738783E-2,-4.6933588E-2,-1.5067576E-1,2.2090732E-1,3.9349154E-1,1.1036978E-1,2.0037727E-1,5.5068273E-2,-8.607629E-2,1.5390204E-1,6.363686E-2,3.5111946E-1,2.8372923E-1,4.6941516E-1,3.564962E-1,2.7710757E-1,1.3606232E-1,1.2238336E-2,1.8718652E-1,4.9557135E-1,6.020862E-1,2.8973937E-1,4.2125878E-1,3.8581732E-1,1.8719076E-1,-7.0875056E-2,1.9647561E-1,7.175543E-1,8.33702E-1,6.360768E-1,4.665362E-1,4.0456367E-1,5.865688E-1,8.502413E-2,3.6092657E-1],"categories":[],"categories_nodes":[],"categories_segments":[],"categories_sizes":[],"default_left":[0,0,0,0,0,0,0,0,0,0,0,0,0,0,0,0,0,0,0,0,0,0,0,0,0,0,0,0,0,0,0,0,0,0,0,0,0,0,0,0,0,0,0,0,0,0,0,0,0,0,0,0,0,0,0,0,0,0,0,0,0,0,0,0,0,0,0,0,0,0,0,0,0,0,0,0,0,0,0,0,0,0,0,0,0,0,0,0,0,0,0,0,0,0,0,0,0,0,0,0,0,0,0,0,0,0,0,0,0,0,0,0,0,0,0,0,0,0,0,0,0,0,0,0,0,0,0],"id":8,"left_children":[1,3,5,7,9,11,13,15,17,19,21,23,25,27,29,31,33,35,37,39,41,43,45,47,49,51,53,55,57,59,61,63,65,67,69,71,73,75,77,79,81,83,85,87,89,91,93,95,97,99,101,103,105,107,109,111,113,115,117,119,121,123,125,-1,-1,-1,-1,-1,-1,-1,-1,-1,-1,-1,-1,-1,-1,-1,-1,-1,-1,-1,-1,-1,-1,-1,-1,-1,-1,-1,-1,-1,-1,-1,-1,-1,-1,-1,-1,-1,-1,-1,-1,-1,-1,-1,-1,-1,-1,-1,-1,-1,-1,-1,-1,-1,-1,-1,-1,-1,-1,-1,-1,-1,-1,-1,-1],"loss_changes":[4.5123785E6,7.4233725E5,5.854595E5,1.35404E5,8.417234E4,8.295928E4,8.982775E4,3.1213E4,2.06585E4,1.342025E4,7.6403535E3,1.3712406E4,1.7983719E4,2.0711875E4,3.6957375E4,2.2224E4,7.313875E3,4.97475E3,7.8754375E3,3.6436406E3,4.709E3,2.6168223E3,3.7460083E3,3.563039E3,6.6506934E3,4.5435938E3,8.1744766E3,1.39593125E4,6.8523906E3,1.709325E4,6.1901406E3,4.1770938E3,9.5550625E3,1.6195156E3,6.8191875E3,8.679E3,2.3359922E3,4.0570234E3,1.0406125E4,2.646164E3,6.493922E3,3.2856855E3,6.9471484E3,1.827292E3,5.798369E2,3.6663296E3,1.0404517E3,2.3949883E3,2.704629E3,3.0009219E3,3.5583477E3,1.8596719E3,2.6754844E3,2.9487812E3,4.093912E3,5.8823125E3,3.4509688E3,2.7633438E3,1.9454912E3,5.705E3,3.5975E3,3.9395625E3,1.8456934E3,0E0,0E0,0E0,0E0,0E0,0E0,0E0,0E0,0E0,0E0,0E0,0E0,0E0,0E0,0E0,0E0,0E0,0E0,0E0,0E0,0E0,0E0,0E0,0E0,0E0,0E0,0E0,0E0,0E0,0E0,0E0,0E0,0E0,0E0,0E0,0E0,0E0,0E0,0E0,0E0,0E0,0E0,0E0,0E0,0E0,0E0,0E0,0E0,0E0,0E0,0E0,0E0,0E0,0E0,0E0,0E0,0E0,0E0,0E0,0E0,0E0,0E0,0E0,0E0],"parents":[2147483647,0,0,1,1,2,2,3,3,4,4,5,5,6,6,7,7,8,8,9,9,10,10,11,11,12,12,13,13,14,14,15,15,16,16,17,17,18,18,19,19,20,20,21,21,22,22,23,23,24,24,25,25,26,26,27,27,28,28,29,29,30,30,31,31,32,32,33,33,34,34,35,35,36,36,37,37,38,38,39,39,40,40,41,41,42,42,43,43,44,44,45,45,46,46,47,47,48,48,49,49,50,50,51,51,52,52,53,53,54,54,55,55,56,56,57,57,58,58,59,59,60,60,61,61,62,62],"right_children":[2,4,6,8,10,12,14,16,18,20,22,24,26,28,30,32,34,36,38,40,42,44,46,48,50,52,54,56,58,60,62,64,66,68,70,72,74,76,78,80,82,84,86,88,90,92,94,96,98,100,102,104,106,108,110,112,114,116,118,120,122,124,126,-1,-1,-1,-1,-1,-1,-1,-1,-1,-1,-1,-1,-1,-1,-1,-1,-1,-1,-1,-1,-1,-1,-1,-1,-1,-1,-1,-1,-1,-1,-1,-1,-1,-1,-1,-1,-1,-1,-1,-1,-1,-1,-1,-1,-1,-1,-1,-1,-1,-1,-1,-1,-1,-1,-1,-1,-1,-1,-1,-1,-1,-1,-1,-1],"split_conditions":[7.2E0,-3E0,1.74E1,-1E1,2.6E0,1.27E1,2.36E1,-1.92E1,-7E0,-7E-1,4.3E0,7.638E2,7.612E2,7.606E2,4.6E1,4.9E1,5.6E1,-1.33E1,3.4E1,3.7E1,2.8E1,7.721E2,7.705E2,2.7E1,9.6E0,1.77E1,6.3E1,5.4E1,6E1,7.516E2,7E1,-2.36E1,-2.4E1,3.6E1,-1.46E1,5.5E1,6E1,-1.91E1,-1.59E1,-1.45E1,-1.33E1,-1.53E1,-1.46E1,3.9E1,5E1,4.9E1,3.3E1,-6.9E0,1.06E1,7.713E2,6.8E1,4.3E1,4.7E1,7.684E2,5.6E0,2.33E1,1.04E1,7.666E2,4.7E0,2.88E1,7.586E2,1.18E1,1.1E1,-6.7468804E-1,-5.303546E-1,-9.49E-1,-7.5736165E-1,-2.2176075E-1,-4.5056587E-1,-6.3694185E-1,-4.9267012E-1,-4.597536E-1,-6.0424656E-1,-2.730553E-1,-4.3642774E-1,-3.392218E-1,-2.0273605E-1,-5.031901E-1,-3.6137822E-1,-2.4316756E-1,-9.451058E-2,-4.3205705E-1,-2.6884574E-1,-1.425641E-1,1.2427125E-2,-3.42329E-1,-1.8029957E-1,-3.892821E-2,-1.05947785E-1,-1.6282663E-1,-2.77325E-1,3.5910346E-2,-3.4738783E-2,-4.6933588E-2,-1.5067576E-1,2.2090732E-1,3.9349154E-1,1.1036978E-1,2.0037727E-1,5.5068273E-2,-8.607629E-2,1.5390204E-1,6.363686E-2,3.5111946E-1,2.8372923E-1,4.6941516E-1,3.564962E-1,2.7710757E-1,1.3606232E-1,1.2238336E-2,1.8718652E-1,4.9557135E-1,6.020862E-1,2.8973937E-1,4.2125878E-1,3.8581732E-1,1.8719076E-1,-7.0875056E-2,1.9647561E-1,7.175543E-1,8.33702E-1,6.360768E-1,4.665362E-1,4.0456367E-1,5.865688E-1,8.502413E-2,3.6092657E-1],"split_indices":[28,28,28,28,28,28,28,9,28,28,28,1,1,1,3,3,3,9,3,3,3,1,1,3,28,30,3,3,3,1,3,9,9,3,9,3,3,9,9,9,9,9,9,3,3,3,3,9,30,1,3,3,3,1,9,30,9,1,9,28,1,9,9,0,0,0,0,0,0,0,0,0,0,0,0,0,0,0,0,0,0,0,0,0,0,0,0,0,0,0,0,0,0,0,0,0,0,0,0,0,0,0,0,0,0,0,0,0,0,0,0,0,0,0,0,0,0,0,0,0,0,0,0,0,0,0,0],"split_type":[0,0,0,0,0,0,0,0,0,0,0,0,0,0,0,0,0,0,0,0,0,0,0,0,0,0,0,0,0,0,0,0,0,0,0,0,0,0,0,0,0,0,0,0,0,0,0,0,0,0,0,0,0,0,0,0,0,0,0,0,0,0,0,0,0,0,0,0,0,0,0,0,0,0,0,0,0,0,0,0,0,0,0,0,0,0,0,0,0,0,0,0,0,0,0,0,0,0,0,0,0,0,0,0,0,0,0,0,0,0,0,0,0,0,0,0,0,0,0,0,0,0,0,0,0,0,0],"sum_hessian":[1.04425E5,5.5286E4,4.9139E4,2.5897E4,2.9389E4,2.703E4,2.2109E4,9.979E3,1.5918E4,1.6118E4,1.3271E4,1.5181E4,1.1849E4,1.2649E4,9.46E3,5.366E3,4.613E3,6.162E3,9.756E3,6.311E3,9.807E3,4.873E3,8.398E3,4.879E3,1.0302E4,6.354E3,5.495E3,1.0401E4,2.248E3,7.507E3,1.953E3,2.073E3,3.293E3,9.72E2,3.641E3,4.541E3,1.621E3,2.337E3,7.419E3,2.268E3,4.043E3,2.22E3,7.587E3,4.329E3,5.44E2,7.409E3,9.89E2,1.53E3,3.349E3,5.314E3,4.988E3,4.193E3,2.161E3,4.045E3,1.45E3,7.218E3,3.183E3,1.73E3,5.18E2,4.445E3,3.062E3,1.339E3,6.14E2,1.023E3,1.05E3,9.31E2,2.362E3,8.8E1,8.84E2,2.344E3,1.297E3,2.888E3,1.653E3,2.69E2,1.352E3,1.458E3,8.79E2,1.682E3,5.737E3,1.911E3,3.57E2,7.52E2,3.291E3,1.798E3,4.22E2,7.33E2,6.854E3,1.637E3,2.692E3,3.84E2,1.6E2,3.356E3,4.053E3,4.24E2,5.65E2,1.29E3,2.4E2,1.654E3,1.695E3,4.907E3,4.07E2,3.37E3,1.618E3,2.201E3,1.992E3,9.99E2,1.162E3,3.629E3,4.16E2,5.23E2,9.27E2,5.48E3,1.738E3,6.33E2,2.55E3,1.529E3,2.01E2,8E1,4.38E2,2.439E3,2.006E3,2.692E3,3.7E2,4.7E2,8.69E2,6.9E1,5.45E2],"tree_param":{"num_deleted":"0","num_feature":"33","num_nodes":"127","size_leaf_vector":"1"}},{"base_weights":[6.614821E-3,-6.361218E0,6.154834E0,-1.0449861E1,-3.6830616E0,2.907069E0,9.912068E0,-1.2636418E1,-8.451922E0,-5.2264104E0,-1.6339983E0,1.3202498E0,4.9454484E0,7.8591895E0,1.240747E1,-9.933644E0,-1.3741743E1,-9.514352E0,-7.1192102E0,-6.3853154E0,-3.9723518E0,-2.521105E0,-3.1596142E-1,2.3550826E-1,2.5283046E0,5.914775E0,3.4195695E0,6.9545918E0,9.402469E0,1.3441172E1,9.826955E0,-1.2602564E1,-8.691865E0,-1.650456E1,-1.2558432E1,-5.812104E0,-9.771313E0,-7.5316095E0,-4.9135046E0,-7.1291604E0,-5.33742E0,-2.7169518E0,-5.101997E0,-1.0772785E0,-3.3242135E0,-9.407237E-1,9.215638E-1,1.3535029E0,-7.145936E-1,3.9665756E0,1.9059448E0,4.0707126E0,7.1548667E0,1.4958053E0,4.3223214E0,8.830889E0,5.797587E0,1.1973947E1,8.908165E0,1.2450879E1,1.5173126E1,1.0810454E1,7.761516E0,-7.6420355E-1,-5.8556265E-1,-3.868211E-1,-4.9053884E-1,-9.744164E-1,-7.8792804E-1,-6.644504E-1,-5.6798184E-1,-3.0591634E-1,-1.3367485E-1,-5.0972843E-1,-4.220005E-1,-4.011162E-1,-3.2960588E-1,-2.553434E-1,3.176161E-1,-2.8388163E-1,-4.1426826E-1,-2.0429671E-1,-2.9278648E-1,-2.1936695E-1,-8.562205E-2,-4.2045116E-1,-2.3223794E-1,5.4600615E-2,-8.253557E-2,-2.3380283E-1,-1.330462E-1,7.302827E-2,-6.794279E-2,2.7643472E-2,1.5247786E-1,6.515667E-3,1.3243833E-1,-1.4313084E-1,2.8836352E-5,2.245777E-1,1.1365767E-1,5.8361527E-2,1.3810858E-1,2.3055628E-1,6.707432E-2,4.0091395E-1,2.7970982E-1,-6.065626E-2,1.0461708E-1,2.6879793E-1,1.8856925E-1,5.2377284E-1,4.0789887E-1,2.4262813E-1,3.4018552E-1,4.9310738E-1,6.274275E-1,4.0414453E-1,4.9764743E-1,5.380758E-1,6.3783514E-1,6.969698E-1,8.130807E-1,4.7313538E-1,6.1863095E-1,3.014686E-1,4.1989174E-1],"categories":[],"categories_nodes":[],"categories_segments":[],"categories_sizes":[],"default_left":[0,0,0,0,0,0,0,0,0,0,0,0,0,0,0,0,0,0,0,0,0,0,0,0,0,0,0,0,0,0,0,0,0,0,0,0,0,0,0,0,0,0,0,0,0,0,0,0,0,0,0,0,0,0,0,0,0,0,0,0,0,0,0,0,0,0,0,0,0,0,0,0,0,0,0,0,0,0,0,0,0,0,0,0,0,0,0,0,0,0,0,0,0,0,0,0,0,0,0,0,0,0,0,0,0,0,0,0,0,0,0,0,0,0,0,0,0,0,0,0,0,0,0,0,0,0,0],"id":9,"left_children":[1,3,5,7,9,11,13,15,17,19,21,23,25,27,29,31,33,35,37,39,41,43,45,47,49,51,53,55,57,59,61,63,65,67,69,71,73,75,77,79,81,83,85,87,89,91,93,95,97,99,101,103,105,107,109,111,113,115,117,119,121,123,125,-1,-1,-1,-1,-1,-1,-1,-1,-1,-1,-1,-1,-1,-1,-1,-1,-1,-1,-1,-1,-1,-1,-1,-1,-1,-1,-1,-1,-1,-1,-1,-1,-1,-1,-1,-1,-1,-1,-1,-1,-1,-1,-1,-1,-1,-1,-1,-1,-1,-1,-1,-1,-1,-1,-1,-1,-1,-1,-1,-1,-1,-1,-1,-1],"loss_changes":[4.0831965E6,5.60953E5,6.474661E5,8.847125E4,9.789044E4,9.205491E4,1.259275E5,2.8778875E4,1.4938125E4,2.5636156E4,1.5551258E4,2.0972791E4,1.8406094E4,1.878125E4,2.9482375E4,9.213344E3,2.2242875E4,5.550375E3,4.242828E3,7.113625E3,1.2016359E4,9.214832E3,4.1388145E3,8.959637E3,6.770301E3,1.73895E4,8.402547E3,1.8433875E4,6.2310312E3,1.3401875E4,6.3737812E3,1.9505469E3,1.9798906E3,4.2693125E3,4.0634375E3,3.5366992E2,3.0186875E3,1.7736719E3,1.6531719E3,8.953469E3,2.4494062E3,6.7377344E3,6.7109453E3,3.538332E3,4.5677188E3,3.5734106E3,1.4074185E3,6.1390225E3,7.005084E3,2.0220703E3,3.3408398E3,4.514414E3,6.090328E3,2.5040684E3,1.8924297E3,3.5067188E3,4.9777656E3,8.4821875E2,3.5288438E3,2.47025E3,3.638125E3,4.4116562E3,1.0835234E3,0E0,0E0,0E0,0E0,0E0,0E0,0E0,0E0,0E0,0E0,0E0,0E0,0E0,0E0,0E0,0E0,0E0,0E0,0E0,0E0,0E0,0E0,0E0,0E0,0E0,0E0,0E0,0E0,0E0,0E0,0E0,0E0,0E0,0E0,0E0,0E0,0E0,0E0,0E0,0E0,0E0,0E0,0E0,0E0,0E0,0E0,0E0,0E0,0E0,0E0,0E0,0E0,0E0,0E0,0E0,0E0,0E0,0E0,0E0,0E0,0E0,0E0,0E0,0E0],"parents":[2147483647,0,0,1,1,2,2,3,3,4,4,5,5,6,6,7,7,8,8,9,9,10,10,11,11,12,12,13,13,14,14,15,15,16,16,17,17,18,18,19,19,20,20,21,21,22,22,23,23,24,24,25,25,26,26,27,27,28,28,29,29,30,30,31,31,32,32,33,33,34,34,35,35,36,36,37,37,38,38,39,39,40,40,41,41,42,42,43,43,44,44,45,45,46,46,47,47,48,48,49,49,50,50,51,51,52,52,53,53,54,54,55,55,56,56,57,57,58,58,59,59,60,60,61,61,62,62],"right_children":[2,4,6,8,10,12,14,16,18,20,22,24,26,28,30,32,34,36,38,40,42,44,46,48,50,52,54,56,58,60,62,64,66,68,70,72,74,76,78,80,82,84,86,88,90,92,94,96,98,100,102,104,106,108,110,112,114,116,118,120,122,124,126,-1,-1,-1,-1,-1,-1,-1,-1,-1,-1,-1,-1,-1,-1,-1,-1,-1,-1,-1,-1,-1,-1,-1,-1,-1,-1,-1,-1,-1,-1,-1,-1,-1,-1,-1,-1,-1,-1,-1,-1,-1,-1,-1,-1,-1,-1,-1,-1,-1,-1,-1,-1,-1,-1,-1,-1,-1,-1,-1,-1,-1,-1,-1,-1],"split_conditions":[5.8E0,-5.2E0,1.64E1,-9.3E0,1.7E0,1.18E1,2.19E1,-7.0710677E-1,-5E0,-1.1E0,5.9E0,8.9E0,-2.5881904E-1,2.14E1,4E1,-1.72E1,-1.49E1,-7.0710677E-1,-5.4E0,-2.6E0,-7.0710677E-1,6.123234E-17,2.4E0,-7.0710677E-1,6.123234E-17,1.07E1,1.22E1,6.123234E-17,6.123234E-17,2.8E1,6.2E1,-2.21E1,5E1,-2.01E1,-1.47E1,-2.3E0,-9.8E0,-2E0,6.2E0,-7.0710677E-1,6.123234E-17,-5E0,-3.3E0,-7.0710677E-1,-4.6E0,6.123234E-17,1.13E1,3.5E0,4.9E0,6.4E1,5.7E0,6.7E1,5.2E1,7.6E0,-8.660254E-1,-7.0710677E-1,1.19E1,9E0,1.54E1,1.05E1,2.84E1,1.23E1,1.32E1,-7.6420355E-1,-5.8556265E-1,-3.868211E-1,-4.9053884E-1,-9.744164E-1,-7.8792804E-1,-6.644504E-1,-5.6798184E-1,-3.0591634E-1,-1.3367485E-1,-5.0972843E-1,-4.220005E-1,-4.011162E-1,-3.2960588E-1,-2.553434E-1,3.176161E-1,-2.8388163E-1,-4.1426826E-1,-2.0429671E-1,-2.9278648E-1,-2.1936695E-1,-8.562205E-2,-4.2045116E-1,-2.3223794E-1,5.4600615E-2,-8.253557E-2,-2.3380283E-1,-1.330462E-1,7.302827E-2,-6.794279E-2,2.7643472E-2,1.5247786E-1,6.515667E-3,1.3243833E-1,-1.4313084E-1,2.8836352E-5,2.245777E-1,1.1365767E-1,5.8361527E-2,1.3810858E-1,2.3055628E-1,6.707432E-2,4.0091395E-1,2.7970982E-1,-6.065626E-2,1.0461708E-1,2.6879793E-1,1.8856925E-1,5.2377284E-1,4.0789887E-1,2.4262813E-1,3.4018552E-1,4.9310738E-1,6.274275E-1,4.0414453E-1,4.9764743E-1,5.380758E-1,6.3783514E-1,6.969698E-1,8.130807E-1,4.7313538E-1,6.1863095E-1,3.014686E-1,4.1989174E-1],"split_indices":[28,28,24,24,24,28,28,19,24,28,24,24,19,24,3,24,24,19,6,24,19,19,6,19,19,24,24,19,19,28,3,24,3,24,6,27,6,24,24,19,19,24,24,19,6,19,24,24,24,3,6,3,3,24,18,19,6,15,6,6,24,9,9,0,0,0,0,0,0,0,0,0,0,0,0,0,0,0,0,0,0,0,0,0,0,0,0,0,0,0,0,0,0,0,0,0,0,0,0,0,0,0,0,0,0,0,0,0,0,0,0,0,0,0,0,0,0,0,0,0,0,0,0,0,0,0,0],"split_type":[0,0,0,0,0,0,0,0,0,0,0,0,0,0,0,0,0,0,0,0,0,0,0,0,0,0,0,0,0,0,0,0,0,0,0,0,0,0,0,0,0,0,0,0,0,0,0,0,0,0,0,0,0,0,0,0,0,0,0,0,0,0,0,0,0,0,0,0,0,0,0,0,0,0,0,0,0,0,0,0,0,0,0,0,0,0,0,0,0,0,0,0,0,0,0,0,0,0,0,0,0,0,0,0,0,0,0,0,0,0,0,0,0,0,0,0,0,0,0,0,0,0,0,0,0,0,0],"sum_hessian":[1.04292E5,5.1231E4,5.3061E4,2.0275E4,3.0956E4,2.8461E4,2.46E4,9.678E3,1.0597E4,1.7656E4,1.33E4,1.6004E4,1.2457E4,1.3499E4,1.1101E4,2.812E3,6.866E3,5.893E3,4.704E3,9.174E3,8.482E3,7.949E3,5.351E3,8.433E3,7.571E3,7.616E3,4.841E3,8.514E3,4.985E3,7.923E3,3.178E3,8.9E2,1.922E3,2.055E3,4.811E3,3.84E2,5.509E3,3.961E3,7.43E2,5.362E3,3.812E3,4.019E3,4.463E3,2.842E3,5.107E3,3.556E3,1.795E3,3.874E3,4.559E3,2.285E3,5.286E3,3.064E3,4.552E3,1.547E3,3.294E3,3.245E3,5.269E3,8E2,4.185E3,5.046E3,2.877E3,2.15E3,1.028E3,2.18E2,6.72E2,1.041E3,8.81E2,4.06E2,1.649E3,2.983E3,1.828E3,3.49E2,3.5E1,4.175E3,1.334E3,2.597E3,1.364E3,7.31E2,1.2E1,2.38E3,2.982E3,1.119E3,2.693E3,1.508E3,2.511E3,5.4E2,3.923E3,5.94E2,2.248E3,1.679E3,3.428E3,5.27E2,3.029E3,1.531E3,2.64E2,1.993E3,1.881E3,1.138E3,3.421E3,1.743E3,5.42E2,2.839E3,2.447E3,2.557E3,5.07E2,2.928E3,1.624E3,2.79E2,1.268E3,1.128E3,2.166E3,9.38E2,2.307E3,2.72E3,2.549E3,1.75E2,6.25E2,2.343E3,1.842E3,7.79E2,4.267E3,1.355E3,1.522E3,1.158E3,9.92E2,2.79E2,7.49E2],"tree_param":{"num_deleted":"0","num_feature":"33","num_nodes":"127","size_leaf_vector":"1"}},{"base_weights":[-1.9211835E-3,-6.0437613E0,5.8400507E0,-9.908978E0,-3.5038586E0,2.8317602E0,9.556974E0,-1.2423339E1,-8.347009E0,-5.0321007E0,-1.6519362E0,1.3980639E0,4.9753337E0,7.64345E0,1.1874882E1,-1.0431285E1,-1.3772069E1,-9.406556E0,-6.9087057E0,-6.090043E0,-3.824185E0,-2.6036575E0,-4.7676006E-1,-1.4597232E0,1.915326E0,2.228367E0,5.7735515E0,6.416846E0,8.635169E0,9.834494E0,1.3125636E1,-1.2201516E1,-8.954141E0,-1.6555315E1,-1.2753611E1,-9.728193E0,-7.926113E0,-7.4182134E0,-5.489342E0,-4.945104E0,-6.675028E0,-5.939914E0,-3.2425787E0,-3.3985806E0,-1.9409175E0,-9.843694E-1,7.073746E-1,-3.493322E0,-6.52501E-1,1.1987311E0,2.8975039E0,6.969558E-3,2.9960024E0,6.5389147E0,4.1915402E0,5.843181E0,7.828484E0,9.430133E0,7.7015233E0,1.03639145E1,7.1985545E0,1.402407E1,1.0881628E1,-6.982988E-1,-5.499937E-1,-2.5906354E-1,-4.7556502E-1,-1.0071615E0,-7.982396E-1,-6.838755E-1,-5.997121E-1,-4.126512E-1,-5.073115E-1,-2.3334561E-1,-4.1817242E-1,-2.2809477E-1,-3.769895E-1,-2.8098026E-1,1.1255961E-1,-2.690781E-1,-1.3091171E-1,-4.4332585E-1,-2.9899123E-1,-4.4605762E-1,-2.7548754E-1,-1.2086578E-1,-2.4459675E-1,-7.291009E-2,-1.7888843E-1,-1.0695199E-1,-3.4772564E-2,-1.078097E-1,-3.2507923E-2,5.4789234E-2,-3.592777E-2,-3.056098E-1,-1.4828539E-1,-9.212732E-3,-1.0973971E-1,9.928511E-2,4.2626406E-3,2.1891522E-1,1.3318165E-1,-1.3019069E-1,3.6038306E-2,1.7020926E-1,9.462106E-2,2.928855E-1,4.1754314E-1,9.43952E-2,2.4787667E-1,2.5350446E-1,3.2295203E-1,4.066728E-1,2.7772948E-1,4.5055246E-1,5.643354E-1,2.776699E-1,4.0378967E-1,4.3577012E-1,5.509042E-1,2.7816862E-1,3.9266464E-1,6.670286E-1,7.7970487E-1,5.83773E-1,4.560456E-1],"categories":[],"categories_nodes":[],"categories_segments":[],"categories_sizes":[],"default_left":[0,0,0,0,0,0,0,0,0,0,0,0,0,0,0,0,0,0,0,0,0,0,0,0,0,0,0,0,0,0,0,0,0,0,0,0,0,0,0,0,0,0,0,0,0,0,0,0,0,0,0,0,0,0,0,0,0,0,0,0,0,0,0,0,0,0,0,0,0,0,0,0,0,0,0,0,0,0,0,0,0,0,0,0,0,0,0,0,0,0,0,0,0,0,0,0,0,0,0,0,0,0,0,0,0,0,0,0,0,0,0,0,0,0,0,0,0,0,0,0,0,0,0,0,0,0,0],"id":10,"left_children":[1,3,5,7,9,11,13,15,17,19,21,23,25,27,29,31,33,35,37,39,41,43,45,47,49,51,53,55,57,59,61,63,65,67,69,71,73,75,77,79,81,83,85,87,89,91,93,95,97,99,101,103,105,107,109,111,113,115,117,119,121,123,125,-1,-1,-1,-1,-1,-1,-1,-1,-1,-1,-1,-1,-1,-1,-1,-1,-1,-1,-1,-1,-1,-1,-1,-1,-1,-1,-1,-1,-1,-1,-1,-1,-1,-1,-1,-1,-1,-1,-1,-1,-1,-1,-1,-1,-1,-1,-1,-1,-1,-1,-1,-1,-1,-1,-1,-1,-1,-1,-1,-1,-1,-1,-1,-1],"loss_changes":[3.6726462E6,5.0212875E5,5.9148975E5,7.9554625E4,8.735672E4,8.985134E4,1.048635E5,2.0732375E4,1.900575E4,2.1588625E4,1.5609945E4,2.5904254E4,2.5680906E4,1.571575E4,2.7175E4,8.1040938E3,1.29131875E4,3.3526875E3,3.8007656E3,6.0043125E3,9.700633E3,4.0562969E3,3.7556296E3,4.4069663E3,1.043916E4,4.5017695E3,1.09655625E4,4.6511406E3,5.2460625E3,5.6051562E3,1.3214E4,2.8698438E3,3.5578906E3,2.2993125E3,2.217125E3,3.562625E3,1.8011172E3,1.3220156E3,1.431332E3,3.085461E3,9.031781E3,2.1335273E3,8.424598E3,1.2134414E3,1.0368564E3,1.7112251E3,1.0392478E3,1.0361533E3,1.3890566E3,7.5182705E3,2.155586E3,1.2672395E3,8.773633E2,7.501328E3,5.2190625E3,1.9326562E3,1.115E3,2.9062812E3,2.6090938E3,3.5565312E3,6.886094E2,4.868875E3,2.5491719E3,0E0,0E0,0E0,0E0,0E0,0E0,0E0,0E0,0E0,0E0,0E0,0E0,0E0,0E0,0E0,0E0,0E0,0E0,0E0,0E0,0E0,0E0,0E0,0E0,0E0,0E0,0E0,0E0,0E0,0E0,0E0,0E0,0E0,0E0,0E0,0E0,0E0,0E0,0E0,0E0,0E0,0E0,0E0,0E0,0E0,0E0,0E0,0E0,0E0,0E0,0E0,0E0,0E0,0E0,0E0,0E0,0E0,0E0,0E0,0E0,0E0,0E0,0E0,0E0],"parents":[2147483647,0,0,1,1,2,2,3,3,4,4,5,5,6,6,7,7,8,8,9,9,10,10,11,11,12,12,13,13,14,14,15,15,16,16,17,17,18,18,19,19,20,20,21,21,22,22,23,23,24,24,25,25,26,26,27,27,28,28,29,29,30,30,31,31,32,32,33,33,34,34,35,35,36,36,37,37,38,38,39,39,40,40,41,41,42,42,43,43,44,44,45,45,46,46,47,47,48,48,49,49,50,50,51,51,52,52,53,53,54,54,55,55,56,56,57,57,58,58,59,59,60,60,61,61,62,62],"right_children":[2,4,6,8,10,12,14,16,18,20,22,24,26,28,30,32,34,36,38,40,42,44,46,48,50,52,54,56,58,60,62,64,66,68,70,72,74,76,78,80,82,84,86,88,90,92,94,96,98,100,102,104,106,108,110,112,114,116,118,120,122,124,126,-1,-1,-1,-1,-1,-1,-1,-1,-1,-1,-1,-1,-1,-1,-1,-1,-1,-1,-1,-1,-1,-1,-1,-1,-1,-1,-1,-1,-1,-1,-1,-1,-1,-1,-1,-1,-1,-1,-1,-1,-1,-1,-1,-1,-1,-1,-1,-1,-1,-1,-1,-1,-1,-1,-1,-1,-1,-1,-1,-1,-1,-1,-1,-1],"split_conditions":[5.8E0,-5.2E0,1.67E1,-1.07E1,1.4E0,1.25E1,2.21E1,5E-1,-5.4E0,-1.1E0,5.3E0,9.8E0,1.59E1,1.74E1,2.87E1,-4.4E0,-1.65E1,-1.26E1,-1.4E0,3.9E1,1.5E0,1.1E0,8.9E0,5.8E0,1.04E1,1.19E1,5.9E1,2.1E1,4.3E1,6.2E1,3.5E1,-1.33E1,-2.5881904E-1,-2.21E1,-1.33E1,4.1E1,6.5E1,-8.660254E-1,5.9E0,-1.54E1,-1.38E1,-3.1E0,5E-1,-8.660254E-1,1.1E0,1.1E0,4.2110088E-1,1.5E0,-2.5881904E-1,5E-1,-8.660254E-1,3.3E0,6.6E1,1.91E1,7.2E0,1.41E1,7.606E2,6.3E0,7.8E0,2.48E1,1.32E1,2.98E1,5.1E1,-6.982988E-1,-5.499937E-1,-2.5906354E-1,-4.7556502E-1,-1.0071615E0,-7.982396E-1,-6.838755E-1,-5.997121E-1,-4.126512E-1,-5.073115E-1,-2.3334561E-1,-4.1817242E-1,-2.2809477E-1,-3.769895E-1,-2.8098026E-1,1.1255961E-1,-2.690781E-1,-1.3091171E-1,-4.4332585E-1,-2.9899123E-1,-4.4605762E-1,-2.7548754E-1,-1.2086578E-1,-2.4459675E-1,-7.291009E-2,-1.7888843E-1,-1.0695199E-1,-3.4772564E-2,-1.078097E-1,-3.2507923E-2,5.4789234E-2,-3.592777E-2,-3.056098E-1,-1.4828539E-1,-9.212732E-3,-1.0973971E-1,9.928511E-2,4.2626406E-3,2.1891522E-1,1.3318165E-1,-1.3019069E-1,3.6038306E-2,1.7020926E-1,9.462106E-2,2.928855E-1,4.1754314E-1,9.43952E-2,2.4787667E-1,2.5350446E-1,3.2295203E-1,4.066728E-1,2.7772948E-1,4.5055246E-1,5.643354E-1,2.776699E-1,4.0378967E-1,4.3577012E-1,5.509042E-1,2.7816862E-1,3.9266464E-1,6.670286E-1,7.7970487E-1,5.83773E-1,4.560456E-1],"split_indices":[28,28,24,24,24,28,28,18,24,28,24,7,7,28,7,7,24,9,24,3,7,28,24,7,24,7,3,24,3,3,3,28,18,24,24,3,3,18,24,9,9,7,18,18,9,28,23,7,18,18,18,24,3,28,9,28,1,9,9,7,9,28,3,0,0,0,0,0,0,0,0,0,0,0,0,0,0,0,0,0,0,0,0,0,0,0,0,0,0,0,0,0,0,0,0,0,0,0,0,0,0,0,0,0,0,0,0,0,0,0,0,0,0,0,0,0,0,0,0,0,0,0,0,0,0,0,0],"split_type":[0,0,0,0,0,0,0,0,0,0,0,0,0,0,0,0,0,0,0,0,0,0,0,0,0,0,0,0,0,0,0,0,0,0,0,0,0,0,0,0,0,0,0,0,0,0,0,0,0,0,0,0,0,0,0,0,0,0,0,0,0,0,0,0,0,0,0,0,0,0,0,0,0,0,0,0,0,0,0,0,0,0,0,0,0,0,0,0,0,0,0,0,0,0,0,0,0,0,0,0,0,0,0,0,0,0,0,0,0,0,0,0,0,0,0,0,0,0,0,0,0,0,0,0,0,0,0],"sum_hessian":[1.0405E5,5.115E4,5.29E4,2.0282E4,3.0868E4,2.9238E4,2.3662E4,7.769E3,1.2513E4,1.6911E4,1.3957E4,1.7521E4,1.1717E4,1.2964E4,1.0698E4,3.14E3,4.629E3,7.202E3,5.311E3,9.013E3,7.898E3,7.711E3,6.246E3,2.685E3,1.4836E4,2.639E3,9.078E3,5.799E3,7.165E3,4.069E3,6.629E3,1.425E3,1.715E3,1.236E3,3.393E3,5.912E3,1.29E3,3.905E3,1.406E3,3.051E3,5.962E3,1.701E3,6.197E3,3.504E3,4.207E3,4.372E3,1.874E3,7.62E2,1.923E3,8.579E3,6.257E3,6.78E2,1.961E3,6.116E3,2.962E3,4.127E3,1.672E3,3.865E3,3.3E3,3.386E3,6.83E2,4.73E3,1.899E3,5.73E2,8.52E2,2.22E2,1.493E3,1.7E2,1.066E3,1.523E3,1.87E3,1.31E3,4.602E3,1.54E2,1.136E3,1.61E2,3.744E3,1.383E3,2.3E1,2.568E3,4.83E2,1.433E3,4.529E3,2.12E2,1.489E3,4.132E3,2.065E3,2.97E2,3.207E3,3.629E3,5.78E2,9.69E2,3.403E3,1.473E3,4.01E2,1.26E2,6.36E2,1.476E3,4.47E2,5.026E3,3.553E3,8.51E2,5.406E3,1.45E2,5.33E2,1.43E3,5.31E2,4.448E3,1.668E3,7.4E2,2.222E3,1.834E3,2.293E3,1.472E3,2E2,3.158E3,7.07E2,4.92E2,2.808E3,9.66E2,2.42E3,1.98E2,4.85E2,3.302E3,1.428E3,1.305E3,5.94E2],"tree_param":{"num_deleted":"0","num_feature":"33","num_nodes":"127","size_leaf_vector":"1"}},{"base_weights":[3.3596165E-2,-5.1936283E0,6.1286473E0,-8.617914E0,-2.2031796E0,3.5952435E0,9.540247E0,-1.0523135E1,-6.4968743E0,-3.4930315E0,-3.3435798E-1,2.300249E0,5.653187E0,7.7148733E0,1.1480701E1,-8.039595E0,-1.1557051E1,-7.2852798E0,-5.0608134E0,-5.1862955E0,-2.7891912E0,-9.4395214E-1,1.001988E0,-2.6325462E-3,2.9383826E0,3.3106158E0,6.501633E0,9.326581E0,7.134021E0,9.58119E0,1.2552069E1,-1.0613679E1,-6.6849494E0,-1.4339833E1,-1.0439134E1,-5.8188653E0,-7.948437E0,1.7066664E0,-5.1362104E0,-4.6299925E0,-7.001572E0,-1.0295472E0,-3.7563546E0,4.3888596E-1,-1.634089E0,3.0698893E0,6.504926E-1,-2.3959458E0,6.120892E-1,2.032889E0,3.6220663E0,6.884128E-1,3.9745712E0,8.010051E0,5.0859256E0,8.75709E0,1.1194675E1,6.052802E0,8.608663E0,8.254902E0,1.0249515E1,1.351428E1,1.0688182E1,-7.023931E-1,-4.9906698E-1,-4.1197458E-1,-2.894425E-1,-8.249521E-1,-6.728878E-1,-5.6837803E-1,-4.848648E-1,-3.4869257E-1,-2.1767648E-1,-4.4117305E-1,-3.730402E-1,-4.1070733E-2,2.7067274E-1,-3.0446118E-1,-2.3468421E-1,-3.3601338E-1,-2.0287E-1,-4.1113734E-1,-2.8207597E-1,-1.1806037E-1,3.7228686E-3,-2.8245604E-1,-1.5553701E-1,1.1204336E-1,-1.3930085E-3,-1.03036426E-1,-1.3919569E-2,3.250309E-1,1.2847175E-1,1.6080117E-2,1.09840296E-1,-2.177767E-1,-8.078351E-2,5.5627506E-2,-3.5208426E-2,1.7025506E-1,7.954643E-2,2.1192585E-1,1.4313678E-1,-8.096425E-2,7.7022634E-2,2.1651565E-1,1.3078372E-1,3.4008926E-1,4.9418068E-1,3.06378E-1,1.9864056E-1,5.1672995E-1,4.055305E-1,4.447442E-1,5.869102E-1,3.2255977E-1,2.5062814E-1,3.995021E-1,4.7850177E-1,4.3947932E-1,3.5603318E-1,5.462415E-1,4.4138432E-1,6.27727E-1,7.55608E-1,6.126473E-1,4.8181817E-1],"categories":[],"categories_nodes":[],"categories_segments":[],"categories_sizes":[],"default_left":[0,0,0,0,0,0,0,0,0,0,0,0,0,0,0,0,0,0,0,0,0,0,0,0,0,0,0,0,0,0,0,0,0,0,0,0,0,0,0,0,0,0,0,0,0,0,0,0,0,0,0,0,0,0,0,0,0,0,0,0,0,0,0,0,0,0,0,0,0,0,0,0,0,0,0,0,0,0,0,0,0,0,0,0,0,0,0,0,0,0,0,0,0,0,0,0,0,0,0,0,0,0,0,0,0,0,0,0,0,0,0,0,0,0,0,0,0,0,0,0,0,0,0,0,0,0,0],"id":11,"left_children":[1,3,5,7,9,11,13,15,17,19,21,23,25,27,29,31,33,35,37,39,41,43,45,47,49,51,53,55,57,59,61,63,65,67,69,71,73,75,77,79,81,83,85,87,89,91,93,95,97,99,101,103,105,107,109,111,113,115,117,119,121,123,125,-1,-1,-1,-1,-1,-1,-1,-1,-1,-1,-1,-1,-1,-1,-1,-1,-1,-1,-1,-1,-1,-1,-1,-1,-1,-1,-1,-1,-1,-1,-1,-1,-1,-1,-1,-1,-1,-1,-1,-1,-1,-1,-1,-1,-1,-1,-1,-1,-1,-1,-1,-1,-1,-1,-1,-1,-1,-1,-1,-1,-1,-1,-1,-1],"loss_changes":[3.3116448E6,5.7296875E5,4.14724E5,1.05342375E5,7.200297E4,7.338175E4,7.2342875E4,3.5188375E4,1.3941219E4,2.1047984E4,9.938603E3,2.484268E4,2.1118E4,9.800625E3,2.0047375E4,1.4023391E4,3.0023125E4,7.7023438E3,2.2431562E3,5.2066562E3,2.1245594E4,7.996241E3,2.7760547E3,5.399379E3,8.187289E3,4.9243633E3,1.6630969E4,2.8690781E3,1.23078125E4,3.086875E3,1.12135625E4,2.8825938E3,3.6452031E3,5.067E3,4.6579375E3,4.1753516E3,2.274125E3,4.6362866E2,1.7979375E3,4.729117E3,1.9715586E3,6.5129805E3,9.8280625E3,2.3466414E3,3.2320723E3,9.3618945E2,1.6612917E3,1.1397275E3,1.9242913E3,3.4496055E3,3.5177344E3,1.129156E3,1.0802305E3,8.48525E3,4.6482812E3,2.1006562E3,7.0559375E2,1.8226094E3,1.8724375E3,6.6758594E2,2.184E3,6.2096875E3,3.438625E3,0E0,0E0,0E0,0E0,0E0,0E0,0E0,0E0,0E0,0E0,0E0,0E0,0E0,0E0,0E0,0E0,0E0,0E0,0E0,0E0,0E0,0E0,0E0,0E0,0E0,0E0,0E0,0E0,0E0,0E0,0E0,0E0,0E0,0E0,0E0,0E0,0E0,0E0,0E0,0E0,0E0,0E0,0E0,0E0,0E0,0E0,0E0,0E0,0E0,0E0,0E0,0E0,0E0,0E0,0E0,0E0,0E0,0E0,0E0,0E0,0E0,0E0,0E0,0E0],"parents":[2147483647,0,0,1,1,2,2,3,3,4,4,5,5,6,6,7,7,8,8,9,9,10,10,11,11,12,12,13,13,14,14,15,15,16,16,17,17,18,18,19,19,20,20,21,21,22,22,23,23,24,24,25,25,26,26,27,27,28,28,29,29,30,30,31,31,32,32,33,33,34,34,35,35,36,36,37,37,38,38,39,39,40,40,41,41,42,42,43,43,44,44,45,45,46,46,47,47,48,48,49,49,50,50,51,51,52,52,53,53,54,54,55,55,56,56,57,57,58,58,59,59,60,60,61,61,62,62],"right_children":[2,4,6,8,10,12,14,16,18,20,22,24,26,28,30,32,34,36,38,40,42,44,46,48,50,52,54,56,58,60,62,64,66,68,70,72,74,76,78,80,82,84,86,88,90,92,94,96,98,100,102,104,106,108,110,112,114,116,118,120,122,124,126,-1,-1,-1,-1,-1,-1,-1,-1,-1,-1,-1,-1,-1,-1,-1,-1,-1,-1,-1,-1,-1,-1,-1,-1,-1,-1,-1,-1,-1,-1,-1,-1,-1,-1,-1,-1,-1,-1,-1,-1,-1,-1,-1,-1,-1,-1,-1,-1,-1,-1,-1,-1,-1,-1,-1,-1,-1,-1,-1,-1,-1,-1,-1,-1],"split_conditions":[7.6E0,-2.9E0,1.81E1,-7.3E0,3.9E0,1.44E1,2.23E1,-7.0710677E-1,-2.3E0,3.3E0,8.7E0,1.26E1,1.81E1,6.123234E-17,2.87E1,-1.54E1,-1.37E1,6.123234E-17,-7.0710677E-1,-2.5881904E-1,-7.0710677E-1,6.123234E-17,6.123234E-17,7.6E0,1.04E1,1.35E1,-7.0710677E-1,2.21E1,2.28E1,2.52E1,-2.5881904E-1,-2.21E1,-2.2E0,-1.8E1,-1.02E1,9E0,-6.8E0,1E0,2.8E0,-1.3E0,-1.13E1,7.3E0,-3E-1,-7.0710677E-1,1E0,-7.0710677E-1,1.33E1,4.2E0,-2.5881904E-1,-2.5881904E-1,6.123234E-17,5.8E0,6.123234E-17,2.46E1,6.123234E-17,-7.0710677E-1,9E0,7.586E2,2.59E1,6.123234E-17,6.123234E-17,3.23E1,-8.660254E-1,-7.023931E-1,-4.9906698E-1,-4.1197458E-1,-2.894425E-1,-8.249521E-1,-6.728878E-1,-5.6837803E-1,-4.848648E-1,-3.4869257E-1,-2.1767648E-1,-4.4117305E-1,-3.730402E-1,-4.1070733E-2,2.7067274E-1,-3.0446118E-1,-2.3468421E-1,-3.3601338E-1,-2.0287E-1,-4.1113734E-1,-2.8207597E-1,-1.1806037E-1,3.7228686E-3,-2.8245604E-1,-1.5553701E-1,1.1204336E-1,-1.3930085E-3,-1.03036426E-1,-1.3919569E-2,3.250309E-1,1.2847175E-1,1.6080117E-2,1.09840296E-1,-2.177767E-1,-8.078351E-2,5.5627506E-2,-3.5208426E-2,1.7025506E-1,7.954643E-2,2.1192585E-1,1.4313678E-1,-8.096425E-2,7.7022634E-2,2.1651565E-1,1.3078372E-1,3.4008926E-1,4.9418068E-1,3.06378E-1,1.9864056E-1,5.1672995E-1,4.055305E-1,4.447442E-1,5.869102E-1,3.2255977E-1,2.5062814E-1,3.995021E-1,4.7850177E-1,4.3947932E-1,3.5603318E-1,5.462415E-1,4.4138432E-1,6.27727E-1,7.55608E-1,6.126473E-1,4.8181817E-1],"split_indices":[28,28,24,24,24,28,28,19,24,7,24,7,7,19,7,24,24,19,19,18,19,19,19,7,28,7,19,24,24,7,18,24,7,24,24,15,31,24,7,7,9,7,24,19,9,19,24,7,18,18,19,24,19,7,19,19,15,1,24,19,19,7,19,0,0,0,0,0,0,0,0,0,0,0,0,0,0,0,0,0,0,0,0,0,0,0,0,0,0,0,0,0,0,0,0,0,0,0,0,0,0,0,0,0,0,0,0,0,0,0,0,0,0,0,0,0,0,0,0,0,0,0,0,0,0,0,0],"split_type":[0,0,0,0,0,0,0,0,0,0,0,0,0,0,0,0,0,0,0,0,0,0,0,0,0,0,0,0,0,0,0,0,0,0,0,0,0,0,0,0,0,0,0,0,0,0,0,0,0,0,0,0,0,0,0,0,0,0,0,0,0,0,0,0,0,0,0,0,0,0,0,0,0,0,0,0,0,0,0,0,0,0,0,0,0,0,0,0,0,0,0,0,0,0,0,0,0,0,0,0,0,0,0,0,0,0,0,0,0,0,0,0,0,0,0,0,0,0,0,0,0,0,0,0,0,0,0],"sum_hessian":[1.03941E5,5.5954E4,4.7987E4,2.6084E4,2.987E4,2.7539E4,2.0448E4,1.3739E4,1.2345E4,1.7672E4,1.2198E4,1.6904E4,1.0635E4,1.0539E4,9.909E3,4.041E3,9.698E3,7.967E3,4.378E3,5.187E3,1.2485E4,8.377E3,3.821E3,3.668E3,1.3236E4,2.829E3,7.806E3,2.788E3,7.751E3,3.577E3,6.332E3,1.391E3,2.65E3,2.776E3,6.922E3,2.484E3,5.483E3,4.8E1,4.33E3,3.973E3,1.214E3,4.429E3,8.056E3,2.789E3,5.588E3,5.54E2,3.267E3,7.49E2,2.919E3,5.696E3,7.54E3,5.72E2,2.257E3,3.777E3,4.029E3,2.141E3,6.47E2,4.475E3,3.276E3,1.203E3,2.374E3,4.172E3,2.16E3,2.13E2,1.178E3,9.66E2,1.684E3,8E2,1.976E3,3.068E3,3.854E3,1.387E3,1.097E3,1.956E3,3.527E3,2.9E1,1.9E1,1.369E3,2.961E3,8.52E2,3.121E3,6.37E2,5.77E2,2.007E3,2.422E3,2.047E3,6.009E3,5.73E2,2.216E3,4.25E3,1.338E3,6.9E1,4.85E2,2.695E3,5.72E2,2.12E2,5.37E2,2.115E3,8.04E2,1.386E3,4.31E3,4.159E3,3.381E3,1.54E2,4.18E2,1.787E3,4.7E2,2.299E3,1.478E3,2.079E3,1.95E3,6.18E2,1.523E3,1.27E2,5.2E2,3.232E3,1.243E3,1.999E3,1.277E3,8.13E2,3.9E2,1.605E3,7.69E2,2.612E3,1.56E3,8.64E2,1.296E3],"tree_param":{"num_deleted":"0","num_feature":"33","num_nodes":"127","size_leaf_vector":"1"}},{"base_weights":[1.7965145E-3,-4.92912E0,5.828634E0,-8.122501E0,-2.0500824E0,3.3763685E0,8.997701E0,-9.900337E0,-6.0302615E0,-3.2861679E0,-3.16758E-1,2.1706944E0,5.3424854E0,7.274817E0,1.0883105E1,-1.1665745E1,-8.592233E0,-6.6823936E0,-4.510576E0,-4.8973746E0,-2.630515E0,-7.499275E-1,1.4516581E0,-1.9921195E-2,2.771707E0,3.3918815E0,6.278533E0,8.824581E0,6.69808E0,1.1624452E1,8.370598E0,-1.347328E1,-1.037729E1,-6.8638716E0,-9.777074E0,-4.146086E0,-6.9357214E0,-5.1760454E0,-3.34981E0,-7.3316474E0,-4.5407124E0,-9.7328943E-1,-3.543149E0,5.5075896E-1,-1.1922212E0,5.1212535E0,1.2855958E0,-2.120314E0,6.059606E-1,3.4235995E0,1.7269384E0,6.4556736E-1,3.9363558E0,7.727533E0,4.803208E0,8.130661E0,1.0267122E1,5.631497E0,8.105459E0,1.0080075E1,1.2635879E1,9.248553E0,6.6935983E0,-7.198711E-1,-5.8105683E-1,-5.4585725E-1,-4.3873802E-1,-4.1974425E-1,-2.9147336E-1,-5.993453E-1,-4.567194E-1,-2.4171634E-1,-9.615079E-2,-1.5643854E-1,-3.5565346E-1,-1.364881E-1,-2.6981705E-1,-1.8722676E-1,-9.4705425E-2,-4.870336E-1,-3.3365664E-1,-1.9681302E-1,-3.052987E-1,-1.061276E-1,1.3492027E-2,-2.6615116E-1,-1.4766194E-1,-6.451995E-2,6.212625E-2,-9.645872E-2,-4.251057E-3,1.8327765E-1,5.0758857E-1,4.7011025E-2,1.4669326E-1,-2.0597284E-1,-7.203987E-2,5.436902E-2,-3.1797633E-2,2.0774274E-1,1.2282207E-1,5.4275277E-3,1.3575569E-1,-4.955754E-2,8.439244E-2,2.22277E-1,1.3484406E-1,3.3005655E-1,4.659089E-1,2.9018372E-1,1.8661733E-1,4.7975993E-1,3.7476206E-1,4.232247E-1,5.3944224E-1,2.3387468E-1,3.184563E-1,3.7089303E-1,4.546272E-1,4.302256E-1,5.3046E-1,6.523048E-1,4.9929854E-1,3.8635832E-1,5.261413E-1,2.3683107E-1,3.5860917E-1],"categories":[],"categories_nodes":[],"categories_segments":[],"categories_sizes":[],"default_left":[0,0,0,0,0,0,0,0,0,0,0,0,0,0,0,0,0,0,0,0,0,0,0,0,0,0,0,0,0,0,0,0,0,0,0,0,0,0,0,0,0,0,0,0,0,0,0,0,0,0,0,0,0,0,0,0,0,0,0,0,0,0,0,0,0,0,0,0,0,0,0,0,0,0,0,0,0,0,0,0,0,0,0,0,0,0,0,0,0,0,0,0,0,0,0,0,0,0,0,0,0,0,0,0,0,0,0,0,0,0,0,0,0,0,0,0,0,0,0,0,0,0,0,0,0,0,0],"id":12,"left_children":[1,3,5,7,9,11,13,15,17,19,21,23,25,27,29,31,33,35,37,39,41,43,45,47,49,51,53,55,57,59,61,63,65,67,69,71,73,75,77,79,81,83,85,87,89,91,93,95,97,99,101,103,105,107,109,111,113,115,117,119,121,123,125,-1,-1,-1,-1,-1,-1,-1,-1,-1,-1,-1,-1,-1,-1,-1,-1,-1,-1,-1,-1,-1,-1,-1,-1,-1,-1,-1,-1,-1,-1,-1,-1,-1,-1,-1,-1,-1,-1,-1,-1,-1,-1,-1,-1,-1,-1,-1,-1,-1,-1,-1,-1,-1,-1,-1,-1,-1,-1,-1,-1,-1,-1,-1,-1],"loss_changes":[2.9955902E6,5.1917925E5,3.7135675E5,9.95305E4,6.363017E4,6.3856656E4,6.7638875E4,3.332275E4,1.2161625E4,1.8300734E4,9.472208E3,2.1991023E4,1.8677344E4,9.6798125E3,1.8439625E4,1.41993125E4,1.696475E4,5.5007188E3,2.8384375E3,4.3190625E3,1.863586E4,5.7143916E3,1.4760415E3,4.7298926E3,8.920969E3,4.966332E3,1.47539375E4,2.8715E3,1.1880469E4,1.1872125E4,3.28175E3,4.2127812E3,3.0178438E3,5.313422E3,6.8950625E3,1.1902295E3,5.2594688E3,1.2506133E3,7.686201E2,9.486953E2,4.1152656E3,6.255345E3,8.328367E3,3.212476E3,6.0476904E3,7.316958E2,1.3230752E3,1.1161453E3,1.6580195E3,5.697203E3,8.0567305E3,9.416354E2,1.7381094E3,6.18975E3,3.6541719E3,1.7874062E3,8.068281E2,3.1530469E3,2.2557969E3,2.2860938E3,4.911375E3,2.8034062E3,7.003047E2,0E0,0E0,0E0,0E0,0E0,0E0,0E0,0E0,0E0,0E0,0E0,0E0,0E0,0E0,0E0,0E0,0E0,0E0,0E0,0E0,0E0,0E0,0E0,0E0,0E0,0E0,0E0,0E0,0E0,0E0,0E0,0E0,0E0,0E0,0E0,0E0,0E0,0E0,0E0,0E0,0E0,0E0,0E0,0E0,0E0,0E0,0E0,0E0,0E0,0E0,0E0,0E0,0E0,0E0,0E0,0E0,0E0,0E0,0E0,0E0,0E0,0E0,0E0,0E0],"parents":[2147483647,0,0,1,1,2,2,3,3,4,4,5,5,6,6,7,7,8,8,9,9,10,10,11,11,12,12,13,13,14,14,15,15,16,16,17,17,18,18,19,19,20,20,21,21,22,22,23,23,24,24,25,25,26,26,27,27,28,28,29,29,30,30,31,31,32,32,33,33,34,34,35,35,36,36,37,37,38,38,39,39,40,40,41,41,42,42,43,43,44,44,45,45,46,46,47,47,48,48,49,49,50,50,51,51,52,52,53,53,54,54,55,55,56,56,57,57,58,58,59,59,60,60,61,61,62,62],"right_children":[2,4,6,8,10,12,14,16,18,20,22,24,26,28,30,32,34,36,38,40,42,44,46,48,50,52,54,56,58,60,62,64,66,68,70,72,74,76,78,80,82,84,86,88,90,92,94,96,98,100,102,104,106,108,110,112,114,116,118,120,122,124,126,-1,-1,-1,-1,-1,-1,-1,-1,-1,-1,-1,-1,-1,-1,-1,-1,-1,-1,-1,-1,-1,-1,-1,-1,-1,-1,-1,-1,-1,-1,-1,-1,-1,-1,-1,-1,-1,-1,-1,-1,-1,-1,-1,-1,-1,-1,-1,-1,-1,-1,-1,-1,-1,-1,-1,-1,-1,-1,-1,-1,-1,-1,-1,-1],"split_conditions":[7.6E0,-2.7E0,1.79E1,-7E0,3.9E0,1.44E1,2.23E1,-1.2E1,-7.1E0,3.3E0,4.6E0,1.26E1,1.87E1,6.123234E-17,4.3E1,-1.87E1,-7.0710677E-1,-8.660254E-1,-8E-1,-2.2E0,-7.0710677E-1,6.123234E-17,-2.5881904E-1,7.9E0,6.1E1,1.34E1,-7.0710677E-1,2.12E1,2.26E1,2.96E1,6.2E1,-2.19E1,-1.34E1,-1.33E1,-1.14E1,1E-1,-7.0710677E-1,-7.0710677E-1,-1.5E0,-5.4E0,6.123234E-17,7.9E0,-3E-1,9E0,8E0,1.86E1,7.9E0,4.2E0,-2.5881904E-1,6.123234E-17,5.1E0,7.1E0,6.1E1,2.46E1,6.123234E-17,-7.0710677E-1,9E0,1.19E1,1.61E1,2.56E1,7.0710677E-1,1.23E1,1.29E1,-7.198711E-1,-5.8105683E-1,-5.4585725E-1,-4.3873802E-1,-4.1974425E-1,-2.9147336E-1,-5.993453E-1,-4.567194E-1,-2.4171634E-1,-9.615079E-2,-1.5643854E-1,-3.5565346E-1,-1.364881E-1,-2.6981705E-1,-1.8722676E-1,-9.4705425E-2,-4.870336E-1,-3.3365664E-1,-1.9681302E-1,-3.052987E-1,-1.061276E-1,1.3492027E-2,-2.6615116E-1,-1.4766194E-1,-6.451995E-2,6.212625E-2,-9.645872E-2,-4.251057E-3,1.8327765E-1,5.0758857E-1,4.7011025E-2,1.4669326E-1,-2.0597284E-1,-7.203987E-2,5.436902E-2,-3.1797633E-2,2.0774274E-1,1.2282207E-1,5.4275277E-3,1.3575569E-1,-4.955754E-2,8.439244E-2,2.22277E-1,1.3484406E-1,3.3005655E-1,4.659089E-1,2.9018372E-1,1.8661733E-1,4.7975993E-1,3.7476206E-1,4.232247E-1,5.3944224E-1,2.3387468E-1,3.184563E-1,3.7089303E-1,4.546272E-1,4.302256E-1,5.3046E-1,6.523048E-1,4.9929854E-1,3.8635832E-1,5.261413E-1,2.3683107E-1,3.5860917E-1],"split_indices":[28,28,24,24,24,28,28,28,6,7,6,7,7,19,3,6,19,18,24,7,19,19,18,7,3,7,19,24,24,7,3,9,6,24,24,7,19,19,6,7,19,7,24,15,24,7,6,7,18,19,9,24,3,7,19,19,15,6,6,7,19,9,9,0,0,0,0,0,0,0,0,0,0,0,0,0,0,0,0,0,0,0,0,0,0,0,0,0,0,0,0,0,0,0,0,0,0,0,0,0,0,0,0,0,0,0,0,0,0,0,0,0,0,0,0,0,0,0,0,0,0,0,0,0,0,0,0],"split_type":[0,0,0,0,0,0,0,0,0,0,0,0,0,0,0,0,0,0,0,0,0,0,0,0,0,0,0,0,0,0,0,0,0,0,0,0,0,0,0,0,0,0,0,0,0,0,0,0,0,0,0,0,0,0,0,0,0,0,0,0,0,0,0,0,0,0,0,0,0,0,0,0,0,0,0,0,0,0,0,0,0,0,0,0,0,0,0,0,0,0,0,0,0,0,0,0,0,0,0,0,0,0,0,0,0,0,0,0,0,0,0,0,0,0,0,0,0,0,0,0,0,0,0,0,0,0,0],"sum_hessian":[1.04259E5,5.6471E4,4.7788E4,2.6773E4,2.9698E4,2.6942E4,2.0846E4,1.4472E4,1.2301E4,1.7335E4,1.2363E4,1.6702E4,1.024E4,1.0895E4,9.951E3,6.156E3,8.316E3,8.605E3,3.696E3,5.012E3,1.2323E4,9.931E3,2.432E3,3.596E3,1.3106E4,3.322E3,6.918E3,2.951E3,7.944E3,7.681E3,2.27E3,2.558E3,3.598E3,3.385E3,4.931E3,7.83E2,7.822E3,2.347E3,1.349E3,6.38E2,4.374E3,4.377E3,7.946E3,2.52E3,7.411E3,1.04E2,2.328E3,8.25E2,2.771E3,8.069E3,5.037E3,5.5E2,2.772E3,3.488E3,3.43E3,1.997E3,9.54E2,4.522E3,3.422E3,3.044E3,4.637E3,1.487E3,7.83E2,1.702E3,8.56E2,2.687E3,9.11E2,1.362E3,2.023E3,1.107E3,3.824E3,5.97E2,1.86E2,3.49E2,7.473E3,1.95E2,2.152E3,1.06E3,2.89E2,1.34E2,5.04E2,3.158E3,1.216E3,2.274E3,2.103E3,1.976E3,5.97E3,6.88E2,1.832E3,4.449E3,2.962E3,8.2E1,2.2E1,1.926E3,4.02E2,2.08E2,6.17E2,1.997E3,7.74E2,4.593E3,3.476E3,1.91E3,3.127E3,2.14E2,3.36E2,1.963E3,8.09E2,2.045E3,1.443E3,1.771E3,1.659E3,6E2,1.397E3,2.18E2,7.36E2,1.975E3,2.547E3,2.022E3,1.4E3,8.08E2,2.236E3,4.012E3,6.25E2,6.81E2,8.06E2,1.56E2,6.27E2],"tree_param":{"num_deleted":"0","num_feature":"33","num_nodes":"127","size_leaf_vector":"1"}},{"base_weights":[2.045258E-3,-4.883769E0,5.2793856E0,-7.9047885E0,-2.3710077E0,2.657481E0,8.194323E0,-1.0568738E1,-6.7870765E0,6.01775E-1,-3.281328E0,4.1856723E0,1.1334955E0,7.1248198E0,1.0781958E1,-8.072514E0,-1.2210842E1,-3.91753E0,-7.9432955E0,-1.3928057E0,2.0047653E0,-4.719163E0,-2.1372743E0,2.8568387E0,5.49002E0,-1.5628163E-2,2.4587743E0,8.77297E0,5.6540275E0,1.2606117E1,9.574934E0,-1.1224202E1,-7.2580023E0,-1.4652729E1,-1.14276085E1,-5.310329E0,-2.6481354E0,-9.119015E0,-7.0608783E0,-2.9467325E0,-8.4547603E-1,1.1379329E0,3.5360236E0,-3.6299572E0,-5.263875E0,-1.0775138E0,-2.6956103E0,4.1101913E0,1.6311644E0,6.752931E0,4.4332767E0,-5.212572E-1,1.1481774E0,1.7868588E0,3.2785697E0,6.874041E0,9.476867E0,4.5535326E0,6.5865445E0,1.1595929E1,1.4227528E1,8.851793E0,1.1741408E1,-5.0961703E-1,-6.4542925E-1,-4.6331143E-1,-3.3034098E-1,-8.821028E-1,-7.021843E-1,-6.0657877E-1,-5.2217805E-1,-3.3214667E-1,-2.3251727E-1,-6.297608E-2,-1.7299315E-1,-3.164832E-1,-4.6429893E-1,-2.435145E-1,-3.6613196E-1,-1.2099942E-1,-1.8971865E-1,-1.5273804E-2,-8.854979E-2,2.0109078E-2,1.0560977E-1,1.5234031E-1,3.1464627E-1,-2.1312848E-1,-1.488532E-1,-3.1423458E-1,-2.4151061E-1,-8.763202E-2,-1.9323125E-2,-2.0096989E-1,-1.1067337E-1,1.5583256E-1,3.1103644E-1,4.8709527E-2,1.1310621E-1,2.6862407E-1,4.1289678E-1,1.83948E-1,2.6406914E-1,-4.424345E-2,1.8703742E-2,4.0284514E-2,8.504778E-2,5.541579E-2,1.102761E-1,1.319966E-1,1.9013053E-1,2.8290567E-1,3.7276757E-1,3.659483E-1,5.087482E-1,1.8586658E-1,2.5237527E-1,3.4810472E-1,2.832861E-1,5.240464E-1,6.0591E-1,6.7857397E-1,7.810879E-1,4.1912648E-1,4.7930557E-1,5.618897E-1,6.534113E-1],"categories":[],"categories_nodes":[],"categories_segments":[],"categories_sizes":[],"default_left":[0,0,0,0,0,0,0,0,0,0,0,0,0,0,0,0,0,0,0,0,0,0,0,0,0,0,0,0,0,0,0,0,0,0,0,0,0,0,0,0,0,0,0,0,0,0,0,0,0,0,0,0,0,0,0,0,0,0,0,0,0,0,0,0,0,0,0,0,0,0,0,0,0,0,0,0,0,0,0,0,0,0,0,0,0,0,0,0,0,0,0,0,0,0,0,0,0,0,0,0,0,0,0,0,0,0,0,0,0,0,0,0,0,0,0,0,0,0,0,0,0,0,0,0,0,0,0],"id":13,"left_children":[1,3,5,7,9,11,13,15,17,19,21,23,25,27,29,31,33,35,37,39,41,43,45,47,49,51,53,55,57,59,61,63,65,67,69,71,73,75,77,79,81,83,85,87,89,91,93,95,97,99,101,103,105,107,109,111,113,115,117,119,121,123,125,-1,-1,-1,-1,-1,-1,-1,-1,-1,-1,-1,-1,-1,-1,-1,-1,-1,-1,-1,-1,-1,-1,-1,-1,-1,-1,-1,-1,-1,-1,-1,-1,-1,-1,-1,-1,-1,-1,-1,-1,-1,-1,-1,-1,-1,-1,-1,-1,-1,-1,-1,-1,-1,-1,-1,-1,-1,-1,-1,-1,-1,-1,-1,-1],"loss_changes":[2.6805412E6,4.0977162E5,3.8194462E5,7.29135E4,7.975864E4,6.1276688E4,6.5418375E4,2.9590875E4,5.726775E4,1.9339582E4,3.710514E4,2.275589E4,